78 100
7_1 -2.665413 -0.32417837 2.5461893 2.1135986 -0.13343826 1.8073725 -0.25972068 -0.64083296 0.26814425 0.7900772 0.7758942 1.6513624 0.5165934 -1.457953 0.019715266 -0.19652124 -1.5409166 0.7068433 1.0516353 0.44331053 -0.6294835 0.26662967 1.1649557 -0.16988392 0.88506067 -0.04833862 1.0846196 -1.8048545 -0.17475927 -0.06332538 -0.2026157 -1.152666 -0.17190388 0.09119535 -0.26856127 2.573482 -1.1669714 2.1299133 -1.2319372 0.40066993 -0.71719456 -0.5789887 -1.4427003 1.8132716 1.4777782 -0.71229714 -0.44207373 -2.3411825 1.7642891 1.2676947 0.07908939 -4.401471 1.6606346 0.83612055 -1.9897227 -1.4332582 -0.5284953 -0.110954545 2.0690541 -0.7430805 -0.60799277 2.0403612 -0.06095911 -2.4270234 -0.8438379 2.759055 1.6491044 1.0624541 0.63301206 -0.21586257 2.2862844 -2.3151 -1.0717753 0.9800899 1.6447436 0.47398397 1.2977754 -0.9595663 1.1230754 -0.8440404 1.1319244 1.5469373 -0.28454873 -1.3124349 2.136094 2.0497348 -1.900124 -0.27364594 -1.4052869 -2.243436 0.36908895 -1.6676263 -0.9395989 -0.6164077 1.2121112 0.15396602 0.63321453 0.56739223 -0.4082862 -0.14525025
1_4 0.233633 0.057606775 -0.2673395 0.29411745 0.15319015 -0.08379136 0.39117098 -1.144019 -0.4593846 -0.1794907 0.8136529 -0.005269651 -0.19754238 0.071042076 -0.115940556 -0.23458695 0.33219326 0.0026296396 -0.19304492 -0.7576836 0.19844267 0.3145677 0.15902855 0.2845607 0.43695384 -0.36016217 0.9692988 0.2364067 -0.051333703 0.559084 -0.4672454 1.0780506 -0.48966092 1.1954869 -0.569131 -0.5526597 -0.34329388 -0.17378134 0.07683571 0.4292416 -0.36382478 -0.026709873 -1.4014807 -0.050725717 0.1404395 0.03552755 0.10123524 -0.05451735 0.117003545 0.009271881 -0.28029737 -0.06624065 -1.4821233 -0.21794155 0.030021349 0.1180778 0.07072771 0.43326518 0.39192852 0.22245583 0.018286834 0.06488006 -0.60581136 0.17582731 -0.90332144 -0.50518215 -0.123509236 0.031289123 0.06021055 -0.36840498 -0.16230568 1.1856245 0.2825381 -1.192935 0.042505417 -0.3414187 -0.22186865 -0.011749301 -0.9830794 0.47410524 -0.23862119 0.9922778 -1.3222644 0.1225459 0.02699794 -0.4388326 -0.07028778 0.21013036 0.020341296 0.13129058 0.0552275 0.09307863 2.5039446 -0.2854319 0.019019414 -0.66331846 -0.20129277 0.17251843 0.60671586 1.2463504
9_8 0.64940566 -0.52853435 0.20186429 0.5342784 -0.51031697 1.4840531 -0.6667021 0.012515843 -0.4967535 0.2731759 -0.1412913 0.57284206 -0.11492292 -0.023675442 -0.43964365 1.0061262 0.18896842 0.017389074 -0.8606457 0.29658735 0.15531528 -0.04868178 0.553302 -0.091807134 0.71137065 0.60502803 1.3884587 0.5011119 0.01432023 1.013165 0.67101294 -0.30640632 -0.008022352 -0.31374645 -1.1622984 -1.1693186 -0.2059331 -0.08672782 0.23393942 -0.55587417 -0.37495285 0.13741353 -0.10188203 0.5556339 -0.2214086 0.37573427 0.15527973 -1.0749173 0.3722862 -0.0008714708 1.051985 0.16253446 0.42638266 -0.27538592 0.23781584 -0.09508516 0.38027278 0.12755588 0.56666005 0.14595884 -0.12159958 0.0537742 0.6329236 -0.42013028 0.08911419 0.33202717 -0.027083429 0.06080861 -0.69962186 0.21675129 0.38532063 -1.2078705 -0.0041419766 -0.20022799 0.3916979 -0.034812335 0.48538262 -0.14228994 0.51284194 0.31835565 0.29843077 0.037554145 0.10425404 -0.53233796 0.07845709 -0.54996157 -0.7689347 0.79317224 0.47141835 0.0130667705 -0.06939947 0.18465123 -0.551052 -0.09357937 -0.17526127 0.82604307 -0.2667929 0.74331576 -0.8057485 -1.1031392
1_6 0.57229227 0.20988274 0.10186041 0.14489603 -0.049197115 -0.0032631797 -0.80721587 -0.94683254 0.077855624 -0.08575108 0.45536485 0.23708524 -0.0007861206 0.46479985 -0.15334736 -0.91973215 1.0184662 0.7704815 0.002461348 -0.19622989 0.5092819 -1.3474013 -0.37075514 0.26064685 -0.28877267 1.2567643 0.96645486 0.14999148 -0.004452222 0.3165159 0.040005505 0.4808752 -1.5138166 0.7458825 -0.5162069 -0.9570294 -0.14286266 -0.44470957 0.14246267 -0.65360516 -0.37824792 0.04573999 0.25522128 -0.5039024 -0.14058676 -0.22764802 0.044509757 -0.30003217 0.7163754 0.01718013 0.15514545 0.437452 -1.6061424 -0.39452964 0.17005548 -0.55987096 0.018818112 -0.9205558 -0.28321072 -0.1836079 -0.09322065 0.1547261 0.080777995 0.48459953 -0.47641256 -0.08813202 0.49872765 -0.932923 -0.26471144 -0.09821377 0.16655044 0.15163901 0.06987923 -0.12918912 -0.009629208 0.33194894 -0.008769323 -0.18095136 0.3698378 0.34040663 0.0866675 -0.021770706 0.031424716 -0.046483573 -0.081397645 -0.12217383 -0.24817872 -0.12728392 -0.17826994 0.15224254 0.28782958 -0.5559522 -0.38886344 0.3236887 0.1273568 -0.20797274 0.010144565 -0.21398793 0.17509818 0.0037517736
6_0 -0.078792684 -0.15182312 -0.07057541 -1.2408439 -0.055272035 0.79822844 -0.9949391 -0.3239526 -0.39437065 0.29721987 -0.632523 -0.026137032 0.012187415 0.021572417 0.07594135 -0.11172734 0.5536979 0.09411947 -0.10841806 0.42301467 -0.0146263 -0.26026496 0.74814487 0.19882596 0.5939888 0.8712164 0.68629724 0.003700217 -0.0038312764 0.39486712 -0.06865698 -0.1002149 0.09122248 -0.08374145 -0.6711618 0.14316928 0.0012259944 -0.2243413 0.124208376 -0.13294509 -0.11533753 0.115168765 0.03529945 -0.6894608 0.0019842924 0.08449442 -0.18717043 -0.12328173 -0.4720207 -0.0038176596 1.4745606 -0.0016904189 0.43479562 0.31162682 0.12761126 -0.37163547 0.014082973 -0.4258323 -0.1043249 -0.016061218 0.065192044 0.09853016 0.03113974 -0.12730657 0.07824259 -0.061292663 0.06439147 0.11447158 -0.534919 0.1660162 0.016545339 -0.549852 0.11681905 0.008269718 0.22991589 0.0142316315 0.019095702 0.021855827 0.5920117 0.16863713 0.0023877793 -0.10380827 0.1405554 -0.08517685 0.09975902 -0.0036511952 -0.44486734 1.8268079 -0.0074758944 -0.04559581 0.019319423 -0.23422961 0.7075094 0.018033514 0.08881996 0.79146445 0.59645456 0.07185093 -0.09265035 -0.36715835
5_3 -0.29434898 -0.09600186 0.47628623 0.3915105 0.044469997 0.39617 0.099054046 1.4001168 0.69208753 2.258827 -0.25931302 -1.1740876 -0.22165456 0.8733663 1.2976806 -0.7920493 0.8439941 0.07620329 -0.041981217 1.680418 0.4824576 1.3128943 0.42335477 0.9902354 0.040633466 -1.6060594 0.4549948 -0.5420807 1.3234719 -0.16533293 1.429425 -0.63905525 -0.42430902 -0.7299291 -1.1578971 3.1240833 -0.7111885 -0.36393055 1.5387125 -0.76951134 -3.7951322 -0.82623935 -0.087198675 0.73756206 -0.7118241 -0.5441294 -1.7061018 -0.2589023 0.19790626 1.6296772 1.7566291 -0.4937496 -0.9887678 -0.1047808 0.7368976 -0.7316265 -0.32356006 0.72493094 -2.7704272 -0.94279975 -1.3140936 -0.27947477 1.1160818 0.9944941 0.009895738 -1.1005108 -0.908035 1.0688044 -0.10615074 0.13305077 0.73258305 0.4180261 -2.0236318 -2.0756023 -0.17193076 -0.85880816 -0.6958464 -0.12296779 0.6489416 1.2232729 3.129988 0.6343093 0.08269764 1.2522866 0.8953272 -0.68764937 0.026205571 -2.18405 1.8600434 -1.3843337 -1.1190408 -2.5509188 -0.1888098 -0.14834589 -0.29108587 0.46472445 -0.074813515 -0.22303571 -1.7402189 0.15086634
2_1 0.39322475 -1.9349667 -2.7614067 -2.078357 -1.8175578 1.6579411 0.63606375 0.052044816 0.9265425 0.030656504 -0.83342993 -1.3559835 0.82583874 -0.7596623 -3.841895 1.7390349 -0.51311827 2.2997177 -0.74271405 -2.3652537 -1.2978845 2.0048869 0.44442725 -0.5544241 -1.5781505 -0.8605459 0.2698699 -0.8996327 0.8425674 -2.2511666 -1.2716539 -0.7005846 -1.1164466 0.09613977 1.5788282 1.1743767 -2.226183 1.1531036 -0.42421883 0.8869577 1.4029496 -0.41500607 -0.11075982 1.7359968 0.22580326 -1.3219826 -0.35956 0.77033114 0.10408936 -0.7209486 -0.4760424 1.0392519 -1.2850224 -0.20547216 2.4266212 -1.6084337 -1.2987386 -0.48560986 0.15851337 0.40616712 -1.820174 0.8279268 -0.17590323 -1.7438797 0.16721855 1.8587347 0.330138 2.842309 1.1486815 0.7196608 1.5031935 -0.58039695 -0.47016677 -0.19103913 -0.12778229 2.4050374 -0.40636885 -2.0688124 0.06663368 -3.693493 -0.7829188 0.56495535 0.23150826 1.6577904 -0.733344 2.9587238 0.2015675 0.18886295 0.32852373 -1.4059839 -2.1156235 -0.13269377 -1.7520449 0.038887173 0.88989174 -1.5191338 -0.12164072 -1.1717303 1.1840255 0.25637096
8_8 -0.33533916 0.97605705 -0.009033149 -0.09804192 0.9094543 -0.5176902 -0.7227677 -0.28236637 0.5539891 0.18210274 0.6968737 0.33004108 0.21119596 -0.030738266 -0.7898821 -0.02739795 0.24129294 0.0578245 -0.7174401 -0.60676867 0.08935504 0.16436185 -0.12385263 -0.40804684 1.0261132 1.4643117 0.035087477 -0.18201 0.037637025 0.16433701 0.0031776968 -0.3659727 0.18281467 0.34784135 -0.9976873 0.11859983 0.5068741 -0.2533058 1.350638 0.012041935 -0.41640964 -0.04977297 -0.4412098 -1.0497837 0.050210945 0.63893247 -0.19269435 -0.4666008 -0.39192313 0.003790783 0.17920429 -0.39012295 0.98986465 0.4968463 0.018532496 -0.32475984 0.05239104 -1.1949487 -0.9141028 0.24082696 0.55585986 0.18174969 -0.6100797 0.27466527 -0.30109444 -0.32896185 0.09853663 0.067934886 0.24195328 0.26231956 -0.033359263 -0.400567 0.28059715 0.81271654 0.88197887 0.13064067 0.4194018 -0.052175123 -0.70318365 0.5299648 -0.22142458 -0.29223293 -0.17008321 0.056864187 -0.09676789 -0.41607082 0.20215896 0.5134348 0.010411684 0.16956164 0.390981 0.13229436 0.5670767 -0.4422563 0.10096049 -0.07332768 0.315175 -0.38743314 0.13024686 -1.5439763
4_3 -0.4575151 -1.858123 2.5136247 -1.0740621 -1.6660289 -0.48756966 1.0479349 -0.40793398 1.0004439 2.6441545 0.21606535 1.2863418 -1.9782652 1.6591245 -1.0115099 0.9416648 -1.5816034 0.05082896 2.199654 0.6520017 -0.93939465 0.40888968 -1.0908948 -1.2162461 -1.4267906 -1.7351921 -0.77594936 -0.34327382 0.33441383 0.94099325 1.3786454 -2.9645064 -0.6794996 0.33200037 1.0799094 0.3514247 -0.16878878 0.74111855 -0.30662662 0.9205054 0.62505347 0.2359759 0.3778404 1.2438678 -0.45937753 -0.64402586 -0.42668965 -0.72923154 -1.1826613 1.363374 -0.2845897 1.6357641 1.0642027 0.26353765 0.081730954 0.66658384 1.3413177 2.2059371 -0.24795137 2.370548 0.9104388 1.2097634 -0.96619797 -0.8512053 0.9378586 1.396917 -0.8836613 -1.7682678 -0.27269328 0.59680796 0.10883514 -1.2377563 -0.00043894845 0.76540864 1.7475343 1.8428849 -0.18103606 1.182311 0.65120703 2.1299264 0.32655352 1.049295 -0.59694034 -2.6957388 -0.14982547 2.1143453 -1.416966 0.2586182 0.58381706 -0.5840746 -1.6896137 0.73174715 -1.3213497 0.95201576 -0.089458264 -2.135022 -0.7376153 -1.7192822 1.272322 0.21888904
5_5 0.7895958 -2.0239196 0.8238174 0.00177017 -1.9825604 -1.4649119 2.125298 0.21909505 0.20481367 -0.9850292 -0.6338033 0.5638019 -1.054885 1.1044828 -0.15407254 -1.4347999 -0.6865058 -0.42013377 1.6369034 -0.24361996 -2.5416207 -0.24237579 1.4871074 -3.1168225 1.6994123 -1.421463 -0.24059519 -0.0011932439 -0.83558685 -0.34024957 2.4297886 0.48356146 1.786524 -1.7196639 2.3399692 0.43187872 0.12709856 -0.94493943 0.14275074 1.5406027 -0.21585056 1.1542351 -1.2344482 0.010411711 -0.7530286 -1.4437047 0.11371212 -0.5812223 -2.300018 1.6769078 0.4089219 1.5610188 -2.0358372 1.9803295 1.1467949 1.6337852 -0.807254 -0.6500723 1.6256402 0.59315115 1.5153396 -0.9375054 -0.1699858 1.0429578 0.41979563 2.555927 -1.1828222 -1.4364829 -0.63909817 2.3166184 0.93827075 1.3479009 -0.18000042 -0.009704483 0.006581276 0.46476287 -0.60845065 -1.1493528 1.2492266 -0.5423372 -1.508031 1.8063341 0.02283165 -1.6708927 -0.8776475 -1.1760993 -0.9268926 -0.09150498 -1.3031408 0.043071523 0.33045053 2.8430676 -0.54078287 0.20205663 -0.5799318 -2.4462726 -0.8906859 0.98669195 -0.09238598 0.4752088
9_9 0.2823021 -0.80296844 -0.27212584 -0.64972836 -0.17853066 0.7186138 -0.5305656 0.85947174 -0.35157976 0.31614888 0.2360136 -1.2620233 0.1021601 -0.23044413 0.24898738 -0.79035217 0.39115173 0.41319087 -1.3212897 1.5114385 -0.098130725 -0.2775398 0.53804106 0.30140626 0.2670984 0.34254876 0.34712616 -0.16079639 -0.026402662 1.1263008 0.039395787 -0.7621937 -0.021631947 -0.3206754 -0.87986165 0.06200601 -0.10008593 -0.5817543 0.20256703 0.064820305 -0.12195297 0.62456536 -0.3765218 -0.47763768 -0.18916066 -0.012266725 0.28152367 -0.8112253 -0.3707966 -0.009996698 0.42491964 -0.055937953 0.19904912 0.502996 -0.01092232 -0.30802292 0.35792 -0.053533863 -0.19732532 -0.058641728 -0.7908571 -0.56161946 0.14745945 -0.13822708 -0.05263403 -0.013223253 -0.52266246 -0.017248861 -1.0900451 -0.0658117 -0.23055357 -0.58075315 0.31993204 -0.2942516 0.38041198 0.4667316 0.21656416 -0.016946249 -0.033404835 0.56706333 -1.1970365 -0.29487866 0.117489554 0.2555875 0.020733172 0.24386857 -0.5530357 1.1202976 0.05392637 0.14623144 0.03846719 0.04542083 0.32974336 0.41828266 -0.41574103 -0.67020446 0.4449796 1.0401012 -0.037692603 0.20993099
6_None -0.5498867 0.07496234 -1.7197909 -1.5655438 -0.13666344 -0.45415264 0.75286466 0.44922563 -2.2454302 -1.7711108 -0.31266877 0.8601982 -0.121803135 1.09127 -0.5186109 -2.308533 -1.0467583 1.441303 -1.8773054 -1.2935597 0.77776486 -2.1368062 0.3907656 0.46470517 2.4526846 -2.3662121 -4.220147 1.782324 -2.512256 -1.6165056 1.945769 -0.0717256 1.2344974 -0.99673 0.77387124 -0.21671954 -1.9590161 1.1447234 -0.2661491 -2.418625 -0.11703402 0.40928945 -0.3435616 -1.107755 1.1515952 -1.449086 0.3657963 -2.4370856 -1.477311 -1.8471466 2.6840053 1.0021802 -0.6045879 -1.3185805 0.6564893 0.083014764 0.8878192 1.3748901 1.1848729 1.4734733 1.7961178 -0.25696734 1.0998782 -2.0760539 -0.43385047 -0.82322764 -1.7551823 3.396425 -0.21023685 -1.9911159 0.5398382 3.0509434 1.747488 1.9991376 -2.3658545 -1.0607935 1.338119 -0.7572619 0.84084904 0.6633162 2.058633 2.10753 0.059286863 0.7762229 0.195576 2.120951 0.35287488 -0.3760573 1.5606438 -1.2958313 -2.7116401 1.1810274 0.28850117 0.3035241 0.9073435 -0.06639192 -0.14310557 2.1570601 0.23157345 0.094371706
4_6 0.25812182 -2.5035193 -0.34424165 -1.0225334 -0.38318902 -0.58366865 2.895186 0.6598676 -1.4364485 -0.8455468 -1.32158 -0.3649483 0.5586075 -0.4614639 -1.1779559 -0.7962093 0.02415913 0.32419312 -1.4198108 -0.8299008 0.23135555 1.6032218 -1.5049571 1.1068665 -0.52101594 -1.2776402 -1.204114 -1.2704449 -2.505909 -0.017347941 -1.5634578 0.59728265 0.31468925 -0.17879955 -0.48883924 1.1823351 -0.00010722881 3.2639353 -0.5590925 2.1705365 -1.1233512 0.77206206 0.42476106 -0.22912672 -1.1011419 -3.1842303 2.5328224 0.24546713 0.61245865 2.020171 -2.5161936 0.25471973 -0.009539031 -3.0639555 -1.1301038 1.0625962 1.6704063 -0.796432 -0.6721803 1.0309713 -1.4020534 -0.15761404 0.58855236 2.795881 1.4109796 0.4008861 -0.43101817 0.18190587 1.7127461 0.77388924 1.534003 0.66067517 -0.3530193 0.67824376 -0.4183712 -1.7106825 0.84729004 0.24488439 -1.9189103 -0.7414791 -1.0707287 0.10669073 0.8394855 2.0584118 1.3391336 0.0735415 0.10909114 -0.735143 1.7497033 0.8556537 -0.37720603 0.028313532 0.62345517 -0.49578342 0.86703855 -0.41846243 0.22550227 -1.8272799 2.017876 -0.45171285
2_9 1.3348118 0.20032144 0.54625946 -0.77990246 1.1965686 -1.7646626 -1.5281428 -1.0082879 1.164312 1.6795434 -1.4797122 0.86876166 -0.31359598 -0.14930053 0.073224746 -0.7961367 1.685864 1.0022414 1.5460477 0.43979308 1.533229 -0.48229352 -0.6207461 0.08403395 -0.43997976 0.82550704 0.968837 0.67428094 0.457412 -0.052184142 1.1976696 0.568955 0.11499392 -1.4719763 0.64477706 -0.4563234 1.655306 -0.28538892 0.0007377194 0.064051636 -0.2446951 -0.8316705 1.9236934 1.2117296 -0.13573982 0.86618364 -1.0892128 -2.944332 0.44011238 0.3566035 -0.4912148 0.60920626 -1.4466848 0.49667737 1.0424199 -0.35991177 0.15051161 -0.9631631 0.07272974 -0.106665745 0.41410094 0.45618287 0.68514407 -0.64058864 1.7666482 0.49320412 0.96725917 0.047944754 0.86156994 -0.26804402 0.5357458 -1.5301974 -0.22793691 0.04497461 1.031873 1.2140026 0.91746426 -0.8683497 0.62958074 -1.2961618 2.1652315 -0.4914788 -0.87437993 -2.0189035 0.34777617 1.4079068 -0.3378228 -0.09492712 0.29655766 -1.5002782 0.45784444 -1.5010316 0.3624141 -1.4545667 0.43886697 -0.26613456 -1.0559894 -1.3534594 1.2322764 1.2514675
7_3 -2.1144845 -0.6690983 1.6754159 1.8128226 -0.14854899 -0.8962901 -0.8142389 0.4906719 0.03008127 -1.2630466 1.7923657 -0.3160428 -1.5786654 1.3484832 -1.0891168 -1.6563672 0.1059958 -2.0325735 0.8879493 0.46357158 -1.6426448 -0.1395985 -0.018866615 -0.67365736 -2.1181479 0.6027861 -3.650863 0.02807725 2.3564034 -1.2747712 1.5987741 1.0741729 1.3246224 -1.2207322 -0.63678074 -0.2825467 -0.06449099 -0.4799002 -0.98855054 1.5787964 1.0170603 0.39915654 0.1702487 -1.2762535 -0.34429622 2.9525485 0.5775055 1.1414473 -1.7848244 0.43689296 3.189278 -0.5048611 0.2372834 0.295872 -0.42383835 1.8959974 -0.11451253 -0.5212244 1.5959865 1.0800902 1.8974218 -0.84276825 0.5029908 -1.0759829 -1.0328774 1.9649308 1.4782327 2.5589776 0.89468825 -1.4624579 -0.8186634 0.71437085 -0.69600743 0.9982112 -0.08763996 2.259672 0.42506224 0.6259884 0.13671981 -2.71514 0.46747854 -0.9090562 0.20579419 -0.26156762 -0.753065 -0.1209532 -1.9567078 0.7645292 -2.3644688 0.063512675 -1.4990977 -0.18254603 -0.50022405 -1.0533478 -1.0102834 -0.10601237 1.6841393 -0.48310837 0.047391873 0.25108945
8_7 -0.2451438 1.2417079 0.35879073 0.23937006 -0.67827404 0.30652276 -0.4048846 -0.18011881 0.9484496 -0.15151381 0.47890425 -0.1624555 0.07121371 0.06725818 -0.23030633 0.553248 0.50643945 0.72896254 1.9063126 0.63755685 0.08739648 0.9347528 0.06757407 -0.39768162 -0.19477873 1.0584902 0.6067729 -0.018348772 0.014362032 1.3665144 -0.5013484 0.15509437 0.8232708 -0.09524977 -0.7405237 0.45642886 -0.31826773 -0.211173 0.4619237 -0.57599276 0.000492891 -0.002270088 0.51591414 0.5744542 0.4514171 -0.12389926 -0.08131974 0.062678136 -1.0787919 -0.0013508674 0.35899898 -0.06697723 0.4296988 0.20479538 0.13453941 -0.38828096 0.10544608 -1.5011932 -0.49519986 0.14323719 -0.04901211 -0.2698381 -0.046479166 0.033306345 -0.964193 -0.08580273 0.1201424 0.18577906 -0.8929254 -0.46900108 -1.0498352 -0.05647265 -0.15303351 0.22317661 0.7869383 -0.11446551 0.15558988 -0.10641582 -0.055625424 -0.37188062 -0.056061406 0.0930117 0.6398666 -0.18829384 0.13209778 -0.3132279 -0.59176433 0.72148806 0.044173937 -0.18948197 -0.3543118 -0.2780317 -0.07947387 -0.67100674 0.23421499 0.7981532 -0.29595014 0.13973671 1.923871 -1.1745563
3_1 0.15971568 -0.36958015 1.0355145 0.18355688 0.6013172 1.8831624 0.08528249 -0.9936684 1.1045437 0.4401347 0.44308403 0.4281048 0.4304834 0.20979445 0.5528151 -1.1958611 1.5493528 0.836118 1.0292417 0.32183307 -0.43247893 0.5208732 -0.76425576 0.5185495 -1.5993595 -0.116633914 0.95593077 0.3492768 -0.13888304 0.50328636 1.4267315 1.0734197 -0.16224961 0.3129571 -1.0323651 -1.7703711 -0.8775057 0.7106065 0.8194947 0.083577625 -0.9227903 1.4181225 -0.71885794 -1.1004869 -0.13006686 -0.4487421 2.1529424 1.126884 -0.5303393 0.40955392 -0.5103141 -1.8156168 0.105640285 -0.100708835 0.15190262 0.12803021 -0.27586046 -0.40750477 0.34058794 0.12611352 0.84189373 -1.1645362 -0.793671 -0.39362064 1.2800064 -0.546947 0.68303674 0.25888968 -1.8746122 0.37105635 -0.27092132 1.1277093 -0.15823185 -2.2186112 -1.2988907 -0.6057121 -0.08092491 0.89787096 0.65667117 -0.5259941 -0.34194657 -0.0067878943 -0.48467672 0.87595385 0.54056704 -0.749741 0.12569283 0.8342928 -0.20935789 1.0316831 -2.9629116 -1.1442002 1.6382719 0.639247 0.90694135 0.5219195 -0.27601025 -0.4394726 0.41411227 -0.103086814
2_5 1.7928007 0.4608342 -1.074029 -0.8466353 -0.638979 -0.967171 -0.14401391 -0.29805955 -0.5470397 0.502377 0.4253488 -0.18322901 1.2888292 -1.495109 1.6067135 -0.68856835 0.39159536 -0.97415197 0.9206354 -0.025616152 1.4272894 -0.66395247 -2.3515637 -1.2794669 -1.8847948 -0.16765456 -1.1624477 -0.06819076 -0.9605105 -0.32038432 -1.9185685 -0.35154045 0.95198286 2.2694125 -0.7815743 3.1578953 1.2325188 -1.3570257 -0.3638864 0.5107774 1.4808515 -2.7399395 0.1916923 -1.7945746 -1.4019868 -0.758363 -1.5486565 -0.7928189 -0.8933743 -3.267882 0.012080746 1.658892 -1.2320766 -1.2118886 -0.76426774 2.3104293 -0.70149225 3.1404908 0.7518348 0.75042367 0.78246266 2.137011 -0.57424355 -0.12092683 3.4791045 1.3730572 2.5441806 -0.3956059 -1.4718233 -0.4011626 0.93662125 -0.5338119 -2.3390305 1.062642 -0.58837587 2.6719065 0.6338632 0.24394117 1.4238013 -0.14766909 1.036555 2.3089879 -0.76675886 -1.2293792 2.8114793 0.52462393 -0.44560567 -0.19603014 1.6022199 2.6016366 -0.6399944 -1.3424463 0.21103613 -0.4259351 -1.538814 0.37548855 0.35281143 -2.4094048 -2.6037629 0.9205739
1_10 0.38504407 -0.54702765 0.11875425 0.23151773 -0.49617198 0.004131984 0.18325564 -0.09865752 -0.56708664 0.36975148 0.64002514 0.8461955 -0.39303944 0.093568295 0.19520728 -0.6404679 -0.60104465 0.44538102 -0.026987653 -0.6240058 -0.20787066 0.18231252 -0.007336423 -0.36566433 -0.7823431 -0.8226229 0.42247185 0.6646976 -0.109403506 0.3693918 1.197824 0.7695734 -0.35701773 0.35101834 -0.7094053 -0.33579123 -0.28204888 -0.52137315 0.21622252 -0.54550654 -0.21489938 0.23976296 -0.37404543 0.49056077 -0.38512173 -0.04374788 0.11326071 -0.054969322 1.7193645 -0.08328579 -0.37796873 0.1712593 -1.0159111 0.082466975 -0.18903601 -0.06947131 0.15894915 -0.40952915 0.46357524 -0.35019445 -0.21410653 0.04000439 -0.27868274 0.36042684 -0.6087527 -0.32876557 0.01748397 -0.2630606 -0.14775158 -0.3800277 -0.4407309 0.66338575 -0.19895157 -1.1796608 0.23730245 0.8868906 0.19157968 0.49385703 -0.50236315 -0.089066766 -0.12418754 0.76502943 0.21944612 0.35603938 -0.06759164 -0.05397932 0.17834626 -0.39597967 0.024966331 1.1788135 0.2261793 -0.45323753 0.40879512 0.26643273 0.060691133 0.71172786 0.12452728 1.1248419 0.83870333 -1.2792683
3_None 0.31843996 -0.33042392 -0.45964432 -0.7340893 2.20189 -1.4353002 -1.5827171 1.4110937 -1.0298551 -0.6747869 -2.9449017 -1.5214738 0.17387316 -1.8214806 1.1800333 -0.6214569 -0.19057146 -1.950988 -0.33234602 -0.6640787 0.013422327 -0.95531976 -0.231358 -1.2091731 -0.68527824 -0.29470316 -1.7008511 1.3321965 0.70148766 -0.24962555 -0.6712991 0.2233 1.076406 1.4702317 0.49458414 -0.10047671 0.14613228 0.15590961 -1.7272063 0.13680072 1.0508813 0.9628973 0.912136 2.1796644 0.33544543 0.49664044 0.83242273 0.5720972 -0.04684221 -3.0605404 1.4266139 -0.73291415 -0.7900106 -0.6562918 -1.4889463 -0.3593244 -1.4046843 2.9235604 0.7041253 -0.5640809 -0.71770316 -1.5271039 -1.2151842 1.0744901 1.0949298 0.26250827 1.1218228 0.014478946 -1.3851142 -0.6539385 0.5868235 -0.06293407 0.31144395 -0.27892885 -1.4128932 -1.388877 0.9598876 -0.11829608 -0.05059228 -0.064257495 2.1250699 -0.7315881 -1.7084906 1.047425 2.7425864 -0.7387198 2.3566759 -0.31121773 -0.14505868 -0.25517094 -0.015161518 1.681801 1.338715 2.2812319 0.3132977 0.416698 1.1443346 0.40236145 -0.3596352 0.31065518
3_10 1.5028082 1.4170069 1.4103086 1.0031353 -2.174557 1.4454625 0.6376403 -1.4960723 -0.93653065 0.4541619 -0.07348271 -0.5605334 -1.1173141 -1.0426028 0.9737778 1.4713036 -0.27884728 0.88458973 0.92649674 0.5843651 -0.17935327 -1.5287036 -0.890361 0.13257107 -0.2890517 -0.5528799 1.1198688 1.2005925 -1.4851052 -1.5483525 -0.62832433 1.8486363 -0.9731411 -0.64890367 -1.1800445 0.73963493 -1.2740811 0.3297424 0.27120495 -0.116380855 -0.5958037 1.04937 0.46376327 0.36825177 -0.020779027 -1.4355444 0.46200436 -0.27715123 1.3254912 -0.5154035 -0.10207365 0.90467334 1.0192521 1.5992105 1.3896644 -0.07606537 -0.12534913 0.48249522 0.96991843 -2.6527128 0.8849884 -0.45164236 -1.0832975 0.8758103 -0.9416831 -0.49869692 -0.5080682 1.0684144 0.048213925 0.037883442 0.71187913 1.9762568 1.9682313 -0.0141009735 0.15179028 0.36153698 0.07732905 -1.1458145 0.1883189 0.9436828 0.5719604 0.5242475 0.43006077 -0.6824397 -0.18750776 1.164309 -0.30815876 0.028487047 -0.9110795 1.6098558 -0.10590577 -1.992679 -0.6590344 1.1282297 0.9188287 0.22337353 -0.7333734 0.76895595 -0.6217307 0.3476959
5_7 0.6407955 0.1459218 1.3155212 0.16617602 0.15079203 0.54389197 -0.82246536 -0.56753874 -0.014548368 -0.24941172 -0.0073253033 0.8841908 -0.29213738 0.043394633 0.33415222 1.843234 1.2806548 1.3412488 -1.5497221 -0.53633976 1.4788904 -0.33022895 -1.3731476 0.10065414 1.7259365 -0.7755317 0.97264683 -0.51692563 1.0001277 -0.7800643 1.6646974 -0.43443295 0.26258928 -0.20978779 -1.8808001 0.18322395 -0.3998408 -1.1933078 1.5647718 -0.71885365 -0.5047946 0.96104753 0.7648981 -1.7896394 -2.0304391 0.07969134 0.58062387 -1.167623 1.4225645 1.6205586 -2.0997958 0.71899563 -0.83438325 -0.07236523 1.9725395 0.71705335 0.0007623716 -2.4916065 0.55845135 0.1877193 0.24390295 -0.610728 -0.10780042 0.63047117 -0.69534075 1.4543228 -0.025599005 -0.026395522 0.9299974 -0.56962097 1.0775408 -0.33950913 0.26982975 -2.1084483 -0.23567876 -0.43749687 1.2632309 -1.1268685 0.41122237 1.5576639 0.3343625 -0.3283688 -0.4016152 -0.97789603 1.7545128 1.4953442 -1.2257489 0.18603684 -0.08921696 1.5926893 -1.6601568 -1.1934958 0.41490218 0.1360759 -1.0953074 1.3028624 0.37217537 0.9426653 2.4590013 0.30391726
1_5 -0.17552528 0.7709944 0.4213283 -0.04873215 -0.007481091 -0.20237406 -0.728187 -0.21983081 1.2897931 0.265313 0.598268 0.0110816695 -0.109198876 0.06647257 -0.1604022 -0.5408315 -1.0158098 0.51751167 -0.06413437 -0.48087183 0.039362222 1.1870863 -0.54402757 0.077958904 0.2895634 0.27587184 -0.54297 0.24839818 -0.0067261546 -0.36412343 -0.0849059 0.52865696 -0.49266598 0.09466298 -0.2878613 0.14348504 -0.7631506 -0.35592225 0.20554672 -0.24434893 -0.3525628 -0.022435158 -0.18143219 -0.3417428 0.5705098 -0.08745581 0.15727693 0.018051753 1.4614234 -0.066933416 -0.50865567 0.014401462 -0.92189044 0.05817217 0.31903258 -0.10354428 0.30208707 0.01858977 -0.19558436 -0.14376871 -0.010949363 -0.34589016 -1.2926416 -0.24714969 -0.42133114 0.102831975 0.18596376 -0.36711526 -0.55664396 -0.6014764 1.2373099 0.56663334 0.24911745 -0.455232 -0.21058887 0.843886 0.35497007 0.09972064 0.013760264 1.5097371 0.13932171 0.17071068 0.70884347 -0.24286608 0.01930703 0.93173456 0.17456055 0.6433584 0.09099736 -0.38715512 -0.012233924 -0.60829693 -0.052857798 0.46681318 0.06786083 0.17960715 0.7849786 0.54387057 0.8268031 0.5190634
1_3 0.22898501 0.5727319 0.37797838 -0.41261372 -0.25862998 0.006270947 -0.6990006 -0.28216717 0.3453033 0.51939803 0.3546191 0.64111805 0.023484515 0.29360366 0.05067642 -0.10501987 -0.9620371 0.49746117 0.58976835 -0.54765975 0.09033588 -0.5360252 -0.048689302 0.17955686 0.42557248 -0.33980712 0.05162828 0.5369821 -0.056479782 0.34125182 0.16403013 0.26584786 -0.5603296 1.0360041 -0.5613219 -0.34999081 0.25388938 -0.9500076 -0.36873767 -1.119073 -0.16187118 0.17635362 -0.7117115 -0.6632154 0.046449702 0.15430772 -1.7217575 0.045793872 0.8086978 -0.031763893 -0.425741 0.23261371 -0.33360493 -0.46785384 -0.017169354 0.075296514 1.6562283 -0.8432549 0.23759633 0.065397605 0.18573512 0.1189624 -0.91583157 -0.38856617 -0.6843222 -0.17947324 -0.06121905 -0.031341113 -0.24000926 -0.58143944 0.3040849 -0.1300622 -0.23443986 -0.20812741 -0.23364049 0.24756084 0.18769552 0.65894973 -0.89118695 0.37080166 0.09959697 0.022239054 0.090431325 0.073157616 0.19456926 0.21916851 0.18541673 0.01581548 -0.20035909 -0.059314523 -0.10100031 0.9772137 0.79529095 0.38128337 0.6244449 -0.061025888 -0.93874604 0.2203299 1.3753779 0.09203752
7_None 1.4223517 0.77941495 -2.4239306 1.4795201 0.33657935 -0.34196025 0.093275346 -0.49315512 0.7603796 -1.238432 -0.6320941 -0.20659907 1.5497333 -1.4759132 1.6426369 2.275951 -1.5005671 3.7601745 0.7497088 1.2309107 -0.13978864 -0.9790931 1.010886 -1.1551667 -1.4455454 0.02897104 -1.0346938 0.6038265 0.541882 1.7862415 0.41140407 -0.69512534 0.29194623 -1.3248842 2.670515 0.8421156 0.57436955 1.0955358 -0.30692834 -0.55249906 -0.16110708 2.6141071 -1.6794829 0.4125541 -1.7202238 0.10297418 -1.4396745 -1.717212 -1.4473537 -2.319358 -0.75542676 -0.32856947 -0.06354589 0.07790975 1.0403466 0.57600623 -1.243352 -1.0716492 -0.23672707 1.5415512 0.30266437 -0.17592822 0.86398 -0.57829475 0.984501 1.0664418 0.6683641 0.92504007 0.58918023 1.8980364 -2.9146476 0.4216708 1.1422341 1.7285035 -0.08296032 1.2859267 0.42429993 0.13319243 0.29635096 1.1580081 -0.8326629 2.3139362 -1.3665174 -1.9384708 0.7574042 -1.30246 1.4367218 -0.72453684 2.9194837 -0.38341883 -0.3096436 -0.17400722 0.25683102 1.4184526 -0.15462913 -1.8439924 0.52715427 -0.7562552 -1.2408874 2.4688272
6_10 0.22261395 -0.37519285 -0.16065572 -0.42501616 0.10259218 0.2967057 -0.8634991 -0.28662238 -0.16509008 -1.4636456 -0.16551279 0.10307779 -0.011200544 0.01979698 0.5674042 0.8325911 -0.6164166 0.60804933 -0.4237436 0.15343884 0.17212586 -0.19245954 -0.009711656 0.30358654 1.103035 1.1955543 -0.076567374 -0.026245108 0.005254527 1.2084466 -0.008125407 0.05821941 0.41432035 0.12458401 -0.40186355 0.03451054 0.006302471 -0.2814561 -0.07867484 -1.58264 -0.13643065 0.22208762 -0.05808654 -1.3907427 -0.2959105 -0.01095514 -0.65910304 -0.66251576 -0.5721677 0.0053310944 0.0821401 -0.0013073517 0.069080606 0.19468248 0.6580144 0.03127576 -0.011174274 -0.5796265 -0.14069581 -0.026126191 -0.021620767 0.8849396 -0.5230709 -0.1619954 0.0054411157 -0.04022531 -0.07559971 -0.042490873 -1.4702072 0.08863422 0.07268464 0.10123211 0.03280541 -0.09533532 0.079851426 0.32992148 0.09236265 0.007674537 0.29389435 0.9215729 -0.040071074 0.0016936335 0.15701695 -0.20543554 0.8913748 -0.015341872 -0.21646042 0.2402895 0.052955594 0.0761678 -0.20130655 -0.28116155 1.5528021 -0.29774264 0.17475341 0.85392547 0.2056032 0.31014922 0.18554111 0.07950066
1_None -0.7792945 -0.29171053 0.64409024 -1.449503 -0.7454739 -2.7826817 0.066616386 0.65096503 -2.2146842 -0.06876157 -1.01561 1.3349886 -0.22681332 0.16248602 -0.35813564 0.8718099 3.1189637 -2.3059993 -0.40209818 -0.3963831 -0.3994363 -0.4461533 2.3136005 0.5003354 -2.586723 -1.4152093 0.80262727 0.9130687 -0.6980793 0.043625858 -0.7762403 -0.6217625 0.98916024 -0.6180432 -0.46377963 2.079722 1.6335301 1.5284637 -0.2152181 2.5060813 0.076733336 -0.15558721 0.9428351 0.47971362 2.320859 -1.7206484 1.6932601 -1.5146774 -0.37344086 1.2392641 1.3270824 -1.5691665 0.1372878 -0.71948236 -1.7984108 -1.7862505 -0.55937344 1.6775688 0.7579943 -0.5989393 -2.0960298 -0.26862422 0.94073755 1.2246226 0.69164777 1.65386 -0.4627712 1.8635744 0.5538112 -1.2019681 -0.29559603 -1.347683 -0.54627234 -1.1712751 0.8737465 -0.27707842 0.15971117 0.6728132 1.5713669 0.27510014 0.50695235 -0.49134684 -1.2771909 -0.7447234 -0.034944348 1.2285475 0.6854313 -0.9559543 -1.5061859 -0.5753342 0.19051659 0.075912006 0.7127412 0.4852084 1.0979493 0.95513064 1.0099882 -0.30062914 -0.86563796 -1.3367218
4_8 0.51497114 1.1377707 1.7298632 -0.49514574 -2.090353 2.0405898 0.3758695 -0.016752895 -0.336134 0.6027312 -1.6754102 -0.029098662 1.2449691 -2.0461073 1.4690161 -0.13660064 -0.15381876 2.7329993 0.685208 2.4225821 -0.97484696 1.1229761 -2.5403528 0.43957117 -1.1181134 0.27903366 -1.4809538 -1.745381 0.057671078 -1.0904298 -0.5651382 -0.9664835 -0.92775583 0.2875574 0.48689047 0.4543326 2.1406274 1.9717464 -0.2624175 -1.3003914 1.2053391 1.8062603 1.0988126 -0.82386804 1.8544469 -0.9181456 1.5467423 -0.99154425 0.44748527 1.3698174 0.91231495 -0.8153407 0.6153087 0.43389976 0.3110475 1.2215693 -0.8402815 -0.47444102 4.3545675 1.5875835 -0.3062563 1.1652929 1.2706606 -0.9580814 -1.5189904 0.6624276 -0.682875 -1.934629 -1.8106035 -1.164448 0.7482663 -0.52121335 -0.3019294 1.4415965 0.20430335 0.27319244 0.9270619 0.6306496 1.9662325 -0.14186047 -2.3397427 0.5113598 -0.7816409 1.361536 -0.51010287 0.12888831 0.026591506 -1.42616 -1.6285198 2.1183925 -1.2959524 -2.0376177 0.00058949296 0.1614193 0.3548468 -1.236753 1.7001379 -0.35769108 -0.40284905 -0.4346621
9_2 0.15973355 -0.46042842 0.074768245 -0.13724001 -0.47798687 0.406976 -0.27360255 0.035736054 0.2484122 0.117195085 -0.30397582 -0.75854594 -0.111610435 0.57847464 -0.32220954 0.1073312 1.5630019 -0.48462012 -0.8200613 -0.74394757 -0.4866464 0.3216707 -0.24264796 0.98120886 0.76340705 1.4410714 0.23253378 0.09987503 -0.03576365 1.2761649 0.1706159 0.35218123 0.698668 -0.05614814 -1.2063563 0.4148444 0.23490506 0.005185514 -0.22695602 -0.8160015 -0.018733894 -0.27591044 -0.69874644 -0.5279095 0.09918167 0.1666621 -0.023101639 0.6016547 -0.6774604 -0.03703965 0.20703061 0.072691016 -0.86170375 0.07876837 0.38500652 -0.0619292 -1.1259696 -0.18928005 -0.35542738 0.07536171 -0.09434099 -0.4611835 0.7657273 -1.9832028 0.120946944 0.089226626 0.27554452 0.3193115 -0.60637164 -0.6274284 -0.13691649 -0.4964111 -0.08340615 -0.3661554 0.95183665 -0.11024499 -0.70308787 -0.032922287 -0.095569745 0.39296353 -1.271281 -0.23838967 -0.3009154 -0.07900083 -0.29976535 0.04510408 -0.10847942 1.5909417 -0.009326557 -0.13450442 0.09680334 -0.74612665 1.2361649 -0.112063974 0.2653916 -0.23611644 0.3539359 -0.163131 -0.34624243 -1.1254565
8_4 -0.26279938 0.24788007 -0.6285077 -0.27989233 1.0572883 0.7768081 -0.24432221 -0.3591209 -0.36709043 0.06594879 0.9824333 0.137378 0.05170388 -0.05257983 -0.07541951 0.80869627 1.628594 0.4706994 0.8232659 -0.8289689 0.35080138 0.5257562 0.059918124 0.35108805 -0.17606187 -0.6139373 0.26521337 -0.35591432 0.011272223 0.62787807 -0.14758557 -0.3089285 -0.58889335 -0.14527068 -0.4006035 0.059625506 -0.047952466 -0.7384503 0.1731811 -0.26667202 -0.01806448 -0.1090951 0.18417525 -0.96860564 -0.12268021 0.35034463 -0.112766154 0.2542393 -0.8588639 0.016711686 -0.04388294 0.1050427 0.44848305 -0.009641351 -0.18160881 1.1293381 0.37883437 -1.1050991 -0.52106375 0.03223845 0.25523522 0.12908243 -0.41297102 -0.14110596 -0.37596625 0.10296237 0.17056324 -0.12611789 -0.47558388 0.38416976 -0.37674722 0.061127152 0.40991387 0.24377151 -0.20152579 0.4212378 -0.28834704 0.1575666 0.095287636 1.3283467 -0.6953186 -0.40582395 -0.16000412 -0.41957 0.9727325 -0.5401277 0.017149381 0.42485133 -0.121101096 -0.10034898 0.05975366 -0.8217981 -0.45283407 -0.13205545 0.06805761 -0.06278096 1.4552574 0.48205978 0.5264761 -1.912117
9_4 -0.09217713 -0.23066305 0.16715637 -0.62270874 -0.45614263 -0.043813244 -1.0461061 -0.5286524 -0.35578087 -0.5182869 -0.7916215 -0.2391222 -0.09828053 -0.41379303 -0.7565137 0.58981717 0.4198928 -0.18417464 -0.5573127 0.86874676 0.47629473 -0.10614768 0.86097497 -0.3883118 1.1555306 1.2246872 -0.26735798 0.015347329 -0.046112932 0.0550795 0.032746777 0.09919144 0.10953876 -0.3278595 -2.0999098 -0.057484504 -0.0058836685 0.045662068 0.12504578 -0.21540534 -0.19367161 -0.20578937 0.23127209 -0.40444314 -0.24076696 -0.183111 0.53749263 0.4938183 0.07813162 0.0026666282 -0.56812644 0.04864166 0.24851239 -0.03916034 0.47397932 0.8424127 0.430134 1.3585364 0.23747589 -0.10490251 -0.0060280315 0.30199644 0.27678347 -0.39413363 -0.7888857 0.23359084 -1.064995 0.1077715 -0.98094684 0.12494129 -0.3709123 -0.45005664 0.0049559693 0.0029095989 0.0038087256 0.053666666 0.5051303 -0.08051016 0.28498498 1.372428 -0.07881332 -0.29099432 -0.030723149 -0.14104874 0.30117565 -0.057160262 -1.0706742 0.43512183 -1.0661601 0.22781585 0.23382504 -0.43936926 0.10096219 0.28393006 0.063879736 0.39921623 -0.06703006 0.17585917 -0.14306903 0.35276276
5_None -0.81965643 -1.0247815 0.39372343 -0.12675989 0.4902083 -0.11968876 1.9621208 -0.5733282 1.1391019 -0.15425964 -0.29628965 1.2637926 0.8264379 0.1002884 1.1138506 -0.68302995 0.06443639 0.18837209 0.17859063 2.104775 0.7421006 -0.00039620625 1.7500101 -0.5142848 1.2906424 -1.3130513 -0.228751 -1.6216221 -0.18411554 -1.4918169 0.2353601 -0.4938479 0.4508844 -2.3168702 -0.16112377 0.6261222 -0.34291488 -0.27814293 -1.738235 -0.4853031 0.14138778 -1.3239859 0.7427096 -0.5820403 -0.73771584 -0.31524047 0.52577263 -0.17570417 -1.7600471 1.7514572 0.027204933 -0.07809198 -0.3792677 -0.792082 -0.7802707 -2.3629706 -0.12999488 -0.34292012 0.6936459 -1.2582495 -0.16137357 0.49809512 -1.5492122 0.13249232 0.28088325 -1.2305608 -0.98628175 0.0075528305 -0.10751081 -0.29043457 -2.2413251 0.23953739 -0.5804096 0.8371106 0.36003217 0.62586087 0.5868996 0.40954956 0.76893216 -0.20453711 1.3581303 0.19165115 -0.32308397 0.71949947 0.31997266 -1.535158 -2.2923336 -0.7413212 -0.29132348 0.33494 -0.024392962 -0.36861032 -0.067663625 0.88300717 0.19152476 0.67611355 -0.4661817 1.0240152 1.175884 -0.50940907
2_8 -0.43663463 0.7832035 1.7956679 -0.76975167 1.9104478 1.5205379 0.6264193 1.4986019 -1.9822936 -0.9106472 1.4282212 0.5790673 1.0876043 -0.96818817 1.8512089 -2.6319535 2.138412 0.6567228 -0.6518187 0.1487951 -1.6911813 1.9115335 1.1175506 0.76531893 -0.44110605 1.0448369 0.55429375 1.736802 -2.5496216 -0.7582889 -1.1425693 0.51535857 -0.4233476 -2.250782 -0.17282483 -0.4383376 -4.2074184 0.70901686 -1.5487541 -0.5260583 1.8419199 -2.66163 -1.5448431 -0.24200378 0.6254187 1.3517699 0.21537492 -1.1600406 -0.45610052 3.0915449 1.274384 2.0657213 -0.9651218 1.0916044 -2.0670383 -2.3674054 0.35748547 0.6646373 1.9995259 -0.2689272 1.4294733 -1.1486189 1.3989592 -2.1105597 0.36540136 0.63770443 -0.021844452 0.5764154 -0.84806234 1.3094691 -2.5869014 -0.80635 -0.42101124 2.7596436 0.307012 -0.97576076 -1.1184932 0.5952984 -0.4370234 -0.4606979 0.6015412 -1.2764468 1.9030466 -0.2828577 -0.12310532 1.9704638 -0.3819998 -0.17551169 -1.3800095 -0.4823101 -0.31822026 2.104463 0.26811245 -1.8030089 -2.6376843 -0.20827635 -0.9823912 0.1959649 0.8237526 0.99484944
8_6 0.50792104 0.6160997 -0.11490004 -0.040866792 -0.0034958846 0.37807786 0.12899248 -0.675516 1.0126188 0.24488749 -0.43849432 -0.06929977 0.039624676 -0.57035863 0.5770388 0.39413607 0.27824166 -0.8978923 1.2546362 0.18711993 -0.30120358 -0.15249449 -0.12721375 -0.1815395 0.28873053 1.0352145 0.434562 -0.15065747 -0.01966387 0.4778861 -0.2691282 -0.11346991 1.2248168 -0.9942182 0.20829318 -0.6345133 -0.04158248 -0.68652743 0.24747658 0.25716013 -0.20392609 0.4893366 0.09656151 -0.07943392 -0.12973589 -0.0015227008 0.016928192 0.3631351 0.30230793 0.0068447916 -0.117346354 0.015118935 0.31109372 0.6351128 0.013888339 -0.14425771 0.640404 -0.7479707 -0.53535444 0.00047477803 0.24640192 -0.38164276 -1.1517589 0.2715175 0.73343456 -0.49511302 0.27419868 -0.79312325 -0.30559537 0.13077922 -0.10829345 0.051209465 0.22120775 -0.05616118 1.2265223 0.14047746 -0.10443394 0.14382423 -0.05184905 0.391574 -0.4483517 -0.1650687 0.13251995 -0.031193847 0.03851466 -0.26036894 0.39658242 0.032367293 -0.22221765 -0.4950767 -0.21346134 -0.6137351 2.3069515 -0.5172293 0.075851955 0.578004 1.3763331 0.99379975 1.2310387 -1.1503037
7_6 -0.24594355 -0.30368394 0.8706544 0.6242312 -0.0041962494 -1.0273212 0.5699337 -0.7149495 0.31432164 -1.8551958 0.44667923 -0.87313724 0.28795013 -0.85788465 1.4592611 -1.1314676 -1.8544203 -0.32110265 -1.0163537 0.18094094 1.2707002 -0.537357 0.8827777 3.7297845 0.5203863 0.9891593 -1.0706468 0.64891607 1.4795508 -0.38109237 0.13794571 1.4069743 0.7204179 1.0412171 0.8330984 0.0009914984 1.0211481 0.38195768 -1.4403089 0.20244114 2.4890614 -0.73052764 -1.8523394 0.38284218 -1.5619583 -0.99254894 0.9733633 1.1758785 1.1932228 0.049704127 -0.5170024 0.8719069 -1.4424087 1.0961524 -0.041258015 1.2341906 -1.4707379 2.8782551 0.04766214 -2.0005236 1.7231969 0.8356809 0.5011743 -1.3735101 0.117806345 -1.3708633 -1.8309035 1.2099721 1.2820328 0.5564576 0.47422507 1.5207845 -1.3185477 -0.7179263 0.18974485 0.030641185 0.32430047 1.5091532 0.5116718 -1.5683753 0.9830354 0.47047088 -1.3333137 2.0395522 -0.87749237 0.42363343 -0.26634133 1.0210972 0.53525496 0.6724277 1.4502345 1.039394 -2.0566974 -1.5978305 -1.047986 -0.5116016 1.1293865 -0.8199509 -0.5863935 -0.040811513
ActivityID 0.27449593 -3.2103786 1.3540494 1.0091965 -1.3796724 0.5207713 -0.038728315 0.28326216 1.3133365 0.84542507 -0.16671476 1.4241644 -0.7347991 -0.28850842 0.01878859 -0.55137223 -0.54309803 0.40370262 -0.04574691 0.5332873 -1.5932232 -0.015865836 -1.2080818 -1.288907 1.806977 1.1312603 0.7825745 0.47943953 0.73329633 -2.4646425 1.6360188 -0.115471706 -0.13342671 0.40347388 -0.578517 -0.43438792 2.1501048 0.5558118 -1.8299481 -0.68381035 -0.2433803 0.41852972 -0.65665805 -0.28459138 -1.1281888 0.9837553 0.12742008 0.54414797 -2.2585647 0.9962902 1.7024205 1.1271697 -0.5304317 0.22804695 -0.1742611 -1.0491934 -0.38486198 -0.5121535 0.1730685 0.47260946 -0.6408335 -1.4585961 -1.4615874 1.2830571 -0.24007949 -1.3953745 -0.19062048 0.8869847 -1.9780952 0.17752181 -0.5129985 0.46016315 0.11274537 -1.107013 0.18417612 0.16047965 -1.0706317 0.43535432 -1.0186282 0.39094585 -0.41552514 -0.0808797 -1.0746216 0.9604559 0.95843357 0.044092324 0.98904294 0.43415332 -1.4635216 -0.18145506 0.013639385 2.1448457 -1.6989028 -0.71241605 -0.4631671 0.32916048 -0.11316783 -2.7433195 -0.46518943 0.031636275
1_7 0.31562024 1.5046673 -0.07140316 0.29118246 0.08374663 -0.14929813 -0.7740448 0.039113022 0.6752921 0.03036763 0.7621533 0.006427022 0.061315186 0.31439263 0.5079638 -0.036803216 0.69723195 0.18905911 0.15443145 0.6868483 0.733827 0.34319454 -0.17808288 -0.010259782 0.02130238 0.72077173 0.24438852 0.008019201 0.11210048 -0.032904793 1.8679224 0.038936917 -0.45556828 1.4577806 0.08317936 -0.9305594 -0.110563144 -0.5642799 0.20288752 -0.21917416 -0.06640743 -0.36440775 -0.6517357 0.11840849 -0.36249885 0.060998764 0.21113405 0.17012683 -0.463164 0.0019658008 -0.26289704 -0.23381408 -1.0238779 -0.5240247 0.2486927 1.1686616 0.22121815 1.0298079 -0.32621914 0.06225834 -0.26258996 0.15501893 0.24935777 0.393926 0.0060160477 -0.35872346 0.19334354 -0.32726127 0.088090785 0.13101383 -0.5078809 1.0964315 0.05223141 -0.21956572 0.12226241 0.3788531 -0.21256272 -0.1261091 -0.064214736 0.48951298 -0.3256102 0.03708529 -0.12232421 -0.25280765 0.25834343 0.45511746 -0.09250383 -1.0910685 0.12739493 0.089098945 0.594016 -0.112467885 1.3445975 -0.17721628 0.07908466 -0.6630325 -0.26621065 0.047498245 1.475779 0.5303456
2_7 1.7929542 -0.19302124 -0.101893716 -0.28613818 1.4558831 -0.5590062 -0.81059366 -0.17146339 0.38103935 -0.5879017 0.91411763 -0.5194078 0.50878793 -0.5264118 1.1909494 -0.94599646 -0.30698937 -0.6601281 0.5567642 0.3388983 -0.33989897 -1.853207 0.20231576 -1.1102127 0.7135937 0.11073243 0.07869961 0.49132577 0.13442498 0.081283905 0.4181701 -0.5632107 -0.24027765 -0.3231468 0.31388634 0.9294839 1.0374439 0.057020362 1.0310968 -0.4077378 0.92089266 -0.5101302 -0.43815282 0.11646977 0.22781873 -0.008867366 -1.486885 -0.40041333 0.24165703 0.0026848328 -0.005309618 1.6987627 0.2517425 -0.24298206 -0.28903618 -0.14796638 -0.92946655 -0.9445971 0.19980359 0.40344733 0.8061894 -1.5422523 -0.17398664 0.38773802 -0.3896057 0.20678955 0.50682896 0.1745236 -0.46403047 1.3262548 0.03713529 0.6287825 0.2556703 -0.49626008 0.37980434 0.0496615 0.11773646 -1.400374 -0.008582591 0.64435136 1.095218 -1.9210794 -1.7419224 0.27875257 -0.8017184 -1.0476635 -0.3708127 0.7174617 0.06820248 -0.08127283 -0.13158695 -1.3960639 0.06414694 -0.8298261 -0.13784686 -1.648309 1.4661205 -0.7935236 -0.18898827 -0.021899551
2_None -0.39418173 -0.035669383 0.55005693 -0.7941143 0.34786612 -1.5272647 -0.4277384 1.3727597 -1.2553188 -0.34101042 -0.1416879 -0.72256774 -0.15956293 -0.23757686 -0.67858005 -0.7999225 -0.71046287 -0.2265871 1.4267735 -1.2733816 0.5149144 -0.04018199 0.2289493 -1.5436989 -0.6094925 -0.45462492 0.102444194 1.2173566 -0.654586 -0.4453064 -1.5752453 1.1765139 2.002467 0.4383411 0.48578486 -0.46668673 -0.13138372 1.829496 2.193728 1.3384246 1.8305563 0.54478574 -0.9348798 -2.1231663 0.8241286 -0.48572463 -1.4359169 -0.5141428 0.52336186 -0.030632485 0.09441681 -0.32964432 -1.2091897 -0.45406446 -0.49324656 1.5769074 0.043036833 0.9427573 0.4463916 1.4907849 -0.40929815 1.0135221 2.2535229 -0.0026070904 0.11403274 0.5443969 0.61346424 1.0715926 1.3837986 -1.0518295 -0.7077081 -0.39759547 -0.9532671 -0.25798503 0.20208253 1.1214997 -0.79921204 1.4965334 -0.5137828 -0.07673805 -1.1856565 1.1949446 0.67339444 0.245002 -0.71529436 0.47229764 1.1101 0.26586932 -0.06951194 0.5560902 -1.5378833 -1.4116812 0.17811623 -0.018765707 0.11975428 0.6852459 -0.36106497 2.7132733 -2.8988829 -0.9612712
2_4 -0.7472216 0.15263692 -1.3175514 0.47912285 0.012881882 0.6918839 -0.83137745 0.83991796 0.7634948 -1.2535006 -1.5206015 2.0566833 0.2889783 0.99627924 -1.9325421 3.0772927 0.15564407 1.0563778 0.49510878 0.14567617 -1.1158693 -2.9903705 -1.3779653 -1.8091737 0.06368089 -0.05897494 1.3164129 -0.69339883 -1.0493118 -0.7150022 -0.8644786 -1.5493793 -0.2955004 0.61437774 1.690385 1.0311345 1.0950474 0.40936813 2.3645086 0.8396106 0.9288922 1.2615234 1.4351825 0.14735737 0.34303132 -1.0666819 2.1140358 -0.27897653 2.3125641 4.194686 2.1384676 0.9632972 -0.059436917 -0.9367232 1.292113 0.17817475 2.4383423 -1.5957198 1.0870047 0.15659392 -0.8842201 1.8833594 3.0739968 1.103633 -1.8176187 -0.82826 1.1930965 -2.0462034 -0.963682 -0.13249773 0.3988244 1.0519029 -1.6108931 0.16993861 -1.2627783 -1.914679 2.025545 -1.0884707 0.80396837 1.7171627 2.6759443 -2.0301936 -0.2619667 0.75609523 1.5486498 -2.0657523 0.35928422 -0.6476766 0.6075787 -0.9121584 0.861814 -1.0288945 -0.9501801 1.2735566 0.66952085 1.1941693 2.8562944 0.30403018 -1.4700367 0.36878747
9_7 0.18982749 -0.60967374 -0.26655746 -0.08972395 0.25909144 0.29150656 -0.6420511 -0.6320576 -0.9164245 0.10862018 -0.47459218 -0.53272784 0.12735662 0.042965535 0.63437796 0.32036936 0.7631393 0.2592841 -0.4547349 0.30421618 0.14743254 -0.31014714 0.22029941 -0.35494167 0.33949 0.13032283 0.5312662 -0.010693625 0.0393348 0.343742 -0.21925318 0.03946686 -0.22258309 0.1426409 -1.1436627 0.3939271 0.3073874 -0.95645213 -0.27237856 -0.002005677 0.0007919331 0.020678636 -0.47276646 -0.8476846 1.0402279 -0.043760978 -1.0116658 0.18667059 -0.90542865 0.06527473 -0.14393154 -0.43960342 2.0162766 0.08933864 0.05732061 -0.42071307 -0.5225492 0.83116245 -0.20764588 -0.011403136 -0.29196227 0.15294081 -0.27697524 -0.38395473 -0.2444457 0.042186394 0.08622772 0.042537615 -0.03949013 1.0139581 -0.07227425 -0.071289875 -0.086437754 -0.42599306 -0.027022615 0.32370847 -0.35157567 -0.06332028 -0.085579336 -0.30804572 0.07057656 -0.21029219 -0.06450281 0.1360491 0.34344828 0.7313812 -0.14095888 -0.4227545 0.03130055 -0.122951776 0.42928702 -0.36160183 1.5532343 -0.042745113 0.11019181 0.33726355 0.5776655 -0.19711274 -0.71323436 -1.7774128
9_10 0.30146146 -1.4284071 -0.26264182 -0.437521 -0.018362239 -0.42873847 -1.8176615 0.159811 -0.72765374 0.04235952 -0.3387965 -0.20068721 -0.06498735 -0.29939628 -0.24204919 0.049845874 1.0289254 0.13412704 0.34346387 0.27517757 0.047045823 0.10797019 0.07618373 -0.107213825 0.12926678 2.1912792 -0.48495302 -0.12024392 0.025459666 0.33533347 0.6085257 0.016233606 0.12230176 0.010408118 0.08047698 0.8708378 0.08906487 0.43993023 1.4917525 0.53162086 0.16314949 0.5728205 -0.38973695 1.3199333 0.5072449 -0.30056816 -0.923169 -0.6137223 -0.82558465 -0.0020920865 0.24953236 0.01571062 0.6958282 -0.28746414 0.12634106 -0.98752964 -0.5794627 0.0536556 -0.15975234 0.0569536 0.20746753 0.12029359 0.10316921 -0.28559762 0.19154377 0.46920705 0.33365038 0.2636807 0.16072614 0.2559614 0.109621495 -0.4604746 0.5640931 -0.095944725 0.48022485 -0.06571249 0.36936718 -0.24670471 1.4192181 0.26514095 -0.34744 -0.529935 0.013568632 -0.12906016 0.64326924 -0.8441412 0.19841762 0.47731847 0.11957475 -0.2003377 0.2681218 -0.18358792 0.014675424 -0.66536736 -0.0074963258 0.6311634 0.72792846 0.55249363 0.1457167 0.05717209
8_2 -0.22959085 0.7478028 0.014895253 0.527673 0.012978779 -0.14421074 -0.42855227 -0.5354072 -0.25353137 0.19890107 -2.283548 0.16829516 0.06255166 -0.1750275 0.38087308 0.9066166 0.8504179 0.46776572 0.15697037 -0.52259463 0.5847654 0.010446166 0.045964792 -0.39669773 0.34993914 0.5742085 0.11197414 -0.807069 0.057292815 0.65339947 -0.110574335 -0.14432096 -0.21574141 -0.65087754 -1.5172864 -1.3005505 -0.17669192 -0.18031363 1.0208229 -0.54219514 0.24009782 0.19961773 0.18587838 -1.8618987 0.32093936 -0.19605386 0.2070946 0.49840313 -0.177837 0.020670623 0.6526099 -0.19032282 1.2392844 -0.035310067 -0.08090437 -0.3955328 0.17867479 -1.029661 -0.025456935 0.17394978 -0.98650354 -0.5242981 -0.23878324 0.2507886 -0.061768092 0.15237875 0.2474297 -0.0031452575 -0.56470233 0.15307622 -0.101411216 0.43081313 0.12576243 0.0920913 0.14490746 0.22187707 -0.082743175 -0.10945812 -0.21448612 1.3940114 -0.7412235 0.26773638 0.6786509 0.1697124 0.17681158 -0.39032045 -0.25854477 0.87423736 0.043700688 0.13556364 -0.119362585 0.64855134 0.18534543 -0.43519688 -0.08763547 0.059287835 0.10770275 0.06508043 1.1843874 -0.70897174
3_6 -0.088839225 0.6573083 -1.7663163 1.5660905 -0.32525218 2.2421403 0.63259095 -1.2293376 0.3322004 0.99688226 0.374083 1.2634386 -0.4870187 1.1383327 -1.4962837 0.058093287 -0.7218104 1.0138361 0.26221764 0.7915988 -1.4346277 0.46105033 0.93494385 0.17332365 0.2705116 -0.69546694 -0.010172149 0.7872755 0.3549263 0.015674507 0.373917 1.5106609 -0.6235675 -0.9089049 -0.41904214 0.73533696 0.34837297 0.79118055 -0.903345 -0.6445571 -0.8358016 -0.5030243 -0.56520754 -1.9072542 -0.2929693 -0.8068155 -0.16996716 1.8700643 0.7069461 -0.8330304 0.8982091 0.63648826 -1.2143289 0.69115454 0.11027121 0.27442884 -0.77632046 0.38425598 -0.05680029 -0.3916916 -0.02268262 1.3770566 -1.6131399 -0.5427372 1.0030015 -0.9454299 0.44335124 0.7375285 1.942984 0.94305086 -0.50386924 0.15724732 1.6652299 -0.4526863 0.8782372 0.3113108 -0.1345102 -1.3045976 0.5935427 0.6355414 1.3515904 0.3745651 1.1494303 0.2554822 -0.71744704 -0.632099 0.6111586 1.6282989 -0.7579289 -1.0299284 0.40388715 -2.0842884 -0.54011065 -0.85678124 0.16960058 -0.51324403 2.1140091 -0.49150792 -0.19551252 0.69878036
4_None 2.6173232 -0.6156446 0.6385119 2.1563416 -0.19175218 0.15583162 -0.2615033 1.2166482 -1.7048438 -1.6031823 1.4017044 -0.46200064 2.37095 -1.0801451 -1.3519601 0.63109636 -0.61756444 -0.8783403 -0.37056938 1.4878961 -1.4014729 1.02985 -0.3429853 0.061201118 -0.5499548 0.5678233 -0.8751517 0.602961 1.2534288 -1.0979909 -0.24580444 0.5803614 -1.293499 -1.8190393 1.8968751 1.5267736 2.2045689 1.3829993 0.28814057 1.0573008 1.9388142 -0.6308721 3.1656094 -0.5851943 0.32043388 0.90095115 0.29546168 -0.1113932 1.5833687 0.6949724 0.9615763 -1.9181556 2.4702806 1.2141364 -0.7494314 0.3385136 -1.3222525 1.7757808 0.8647859 -0.53416896 -0.65962905 -0.009942676 2.4162412 -1.0666528 -0.7940045 -0.06681634 -1.1621245 1.6889204 1.726878 -1.3663965 -0.19659302 -1.3556689 0.95942974 -0.10389315 0.44233754 1.0212839 0.2019437 -0.19400865 -0.6662216 -0.7873389 1.3420262 -0.3260654 -0.42527884 -1.4544728 -1.7140428 -0.11773381 -0.5707225 -1.2534337 -0.1811417 -1.4372628 0.11010536 1.7051517 -0.48828733 3.401535 -2.557799 -0.39388484 -1.1964289 -2.6789043 -0.27603444 0.77115965
8_1 -0.8506008 0.593618 -0.27570057 0.7064251 0.67855275 -0.5721214 -0.7992235 0.22664283 0.19500875 -0.056737643 -0.24448979 0.3861146 -0.17048353 0.29490134 -0.068865575 0.17794314 1.5690275 0.34206232 -0.57833916 0.14336918 0.31162062 -0.14624675 0.07672584 1.0055498 0.08125975 0.6706077 0.69813263 0.011203566 -0.026040647 0.14772874 -0.23199978 -0.041264597 -0.05428607 -0.42288736 -0.7038434 -0.99557644 0.05219403 -0.19871756 1.5542513 -0.34067032 -0.2521843 0.20885043 -0.12516055 -0.21735655 -0.058118336 0.2998246 -0.5684352 0.48680764 -0.17900673 -0.007483734 -0.029521188 0.07113621 0.41203606 0.4994067 0.2603108 -0.76913285 0.21172531 -0.8872978 0.13140966 -0.07960486 0.1637834 -0.19038731 -0.6837893 -0.12829337 0.3978452 -0.35220912 -0.22334744 0.10675436 -1.3618686 0.73933107 -0.0013749895 0.72821146 0.54195136 -0.11616851 0.27795497 -0.15225087 0.40277845 0.042125102 0.045632634 0.14666866 0.523094 0.16588408 1.1548828 -0.0027674884 0.2606196 0.46541736 -0.15729663 1.1974858 0.079381876 0.2051013 -0.35861933 -0.31769592 0.7872094 -0.15786797 0.12017708 0.043180395 0.61955655 0.30826724 0.06783607 -1.5507606
4_1 -1.3063554 -0.31845182 -0.5404348 -1.1058722 1.6209401 0.09585294 0.118436426 0.098285206 -0.55113155 -0.6702882 0.5079718 -1.0177804 1.908268 -0.6916384 1.8490685 2.756643 -1.1125875 -1.0324206 -0.007410527 -0.7246239 1.5729153 1.0092044 0.5422403 0.6439143 -0.033505663 1.5288092 2.124196 -0.15213823 0.40604204 1.3082289 -0.6734002 -0.5995099 1.2638505 0.67736983 1.1729287 -0.18187977 -2.4006948 -0.6155178 0.97130877 0.9631636 -0.38816398 0.70277596 0.26057363 -1.8828101 0.10605397 1.3653073 -0.15618464 -0.3449699 0.08376395 1.1898053 0.44192547 -1.059514 -1.5829383 -0.8328909 0.55345786 -0.19497865 -1.1272732 -1.246162 0.5031288 1.024653 -0.27466348 1.3711542 1.9573944 0.6483005 0.7187094 -3.0054657 -1.580765 -0.81994486 -0.99439657 -1.7573929 2.2916727 -0.15879461 1.8203081 0.047647484 -0.8671059 0.25880578 -0.24777293 -0.38886967 -0.010554403 -2.2248325 0.5343404 -1.1563548 -0.85444206 1.5559154 1.5505571 2.5958195 1.0128108 -2.3327405 -0.41597632 0.10617195 1.0433577 0.4615882 0.8160604 0.21041247 1.4666753 0.5345321 0.5191988 -0.6262333 -1.7234151 -0.77125967
8_9 -0.6394891 0.82224923 -0.1282243 -1.538535 0.30692872 0.1151061 -0.35606024 -0.2619799 -0.21928768 0.24538921 -0.7085992 -0.57315207 -0.13298407 -0.11108047 0.115401305 0.022538342 -0.05565116 0.16424577 -0.115130395 0.6537001 -0.026852619 0.069742136 -0.05643166 -0.21439396 0.19077952 0.9746611 2.2867603 -0.054536026 -0.053896096 1.1583742 -0.0876129 0.3804561 -0.38759238 0.16031724 -0.66673774 -0.17856118 -0.3069846 0.16405915 0.45625052 0.52024585 0.042009197 -0.3067303 -1.3830608 -0.59433293 -0.75423163 0.41549835 0.02227032 0.46709746 -0.035137646 -0.010339048 0.15812604 -0.11266333 0.64823115 0.08112705 0.10080948 0.87312967 -0.7573049 -1.3765118 -0.069102906 -0.060325522 -0.114843205 0.25971526 -0.19347158 -0.15592287 -0.16469002 -1.1028806 -0.13653031 -0.45208997 -0.347907 1.3186374 -0.06112569 1.0021062 -0.4457384 0.1213191 -0.05021461 -0.11922808 -0.04267804 0.0396597 0.020263635 -0.018857287 -0.19456612 0.055223558 0.12361146 -0.073157355 -0.0964294 -0.329488 0.252572 0.22561355 0.19792747 -0.0898657 0.21153846 -0.02509411 -0.0682325 -0.037412845 0.7491518 0.4295953 0.38812888 0.5096443 0.91968054 -0.95643735
1_9 -0.8251925 -0.71568286 -0.3817276 0.25799784 0.19858457 0.8132004 -0.085146114 -0.091482185 0.73987234 0.006983485 -0.5471953 0.112117425 -0.29293475 0.47808543 0.13362792 0.7757807 -0.7291689 1.540988 0.49467334 -0.9099394 0.18691988 -0.04490654 -0.23266426 0.04726424 0.42073113 -0.33653763 1.9798927 1.8334823 -0.11089781 -0.15413046 0.59737045 0.24038573 -0.6179559 -0.11823267 -0.860744 -0.37890682 0.03821313 -0.20986016 0.06506048 -0.4027755 -0.1638554 0.8699495 -0.63361657 -0.86720747 0.0561423 -0.046159197 -0.8837744 0.1922187 -0.6661838 0.03675431 -0.21238783 0.17533119 -1.0807165 -0.37037444 -0.332658 0.18903632 -0.5246339 -0.15635152 -0.040864993 -0.33248898 -0.035553485 -0.8225205 0.046029508 0.2890154 0.17232817 -0.07456107 0.29790288 -1.0384963 -0.46134257 -0.4398494 0.5553437 0.16519342 0.10598348 0.09674731 0.22557926 -0.054255676 0.066496514 0.06842114 0.23232318 0.31164712 -0.20667437 0.3728672 0.0031878243 0.22217846 0.037575725 -0.16925459 -0.019136567 0.1458803 -0.02949095 -0.066395916 -0.016902959 0.359747 1.0166063 -1.0096289 0.123868026 -0.6627915 -0.5201024 0.28410816 0.92006963 0.115164116
4_5 -2.4386864 -2.0327702 -1.0952783 -0.72898096 -0.46373937 0.99933887 0.87344205 -1.0220121 2.3828595 2.2217405 0.025363443 -1.0548362 -0.19029042 0.086376436 -0.5062763 -0.64247775 -1.0428724 -1.7800516 0.8469358 -1.1691697 1.6426405 0.0541559 -0.11647341 0.9200633 -0.21790367 1.6846403 1.1013889 0.7519819 -1.2267874 0.045334708 -1.489034 -1.9846323 2.0614903 2.4224627 0.71261096 0.2904698 -0.80115813 1.7212895 -0.12323572 -0.38258773 0.28088114 0.8991264 -0.851368 -1.1678135 -0.30564836 0.010621225 -0.3914242 -2.4470446 0.5519752 1.4152086 -0.80900085 -0.12905239 1.3766413 -0.028176324 1.1875459 1.4993492 0.43902752 -0.2751222 0.5390038 1.4524812 -2.507504 -2.1148617 1.4531442 0.3996946 0.092445426 0.92140436 -0.44300404 -0.14834766 -1.8498883 -1.5438806 0.7161762 0.37889948 -0.75511956 -2.4691892 -1.1514237 -1.0801744 0.13491175 1.0165893 1.6147846 -0.11656629 -1.2259818 0.5217962 -0.4918184 0.29176044 0.13941514 -0.875871 2.3928857 1.3653039 1.9718388 -1.1043566 -0.6639187 2.4240627 0.16999958 -1.0447074 1.1162161 0.041694038 -1.9986367 -1.8853928 -1.0856116 0.31306553
3_4 -1.6882225 1.745525 1.8734139 0.4571475 0.91854167 0.84066457 -0.78940916 -0.873653 -0.13050923 1.8246226 1.0464901 0.45084113 -0.070072554 0.6625744 0.79097635 -1.724805 -0.06730992 1.0365084 -1.1674316 -0.13842858 0.24361055 1.6056737 0.65121275 -0.43548685 1.0934981 -0.6441953 -0.908093 1.3372687 0.550501 -0.039470408 0.042642854 0.09703593 0.11266802 0.4410072 -1.227509 0.4767758 -0.68057483 0.21139432 -0.39671168 -0.49808505 0.09796241 0.38093174 1.4618009 -0.35113198 0.30154085 -0.2669763 -0.8448572 -0.39655784 0.99467975 0.13256435 -0.15291415 -3.1208715 -0.66120076 0.88410056 0.5195934 -1.6471318 1.0443741 -0.15223002 1.603393 0.08858603 0.042603973 -1.7993516 -1.0462795 -1.0643972 -0.07757475 -0.30970237 -0.032973967 0.0896195 0.3426504 -0.8571584 0.96300393 -1.2178605 0.56650054 -0.46050945 -0.42230687 -1.3289908 0.43455306 2.512668 -0.8004625 -1.6419659 -1.0199381 0.22515929 -0.5438993 -1.750451 -0.7613532 -0.7835353 -0.08726325 -0.7404941 1.6443506 -1.2428337 0.42059934 -0.051235113 0.08403076 -0.68537617 0.6031736 0.35210392 -0.2813683 0.7062357 2.3099399 -0.8942831
1_8 1.0433264 1.198525 -0.21146525 -0.20561397 -0.18254067 -0.047875144 -1.4512228 -0.309255 0.075587645 0.11427975 0.13785855 -0.011022292 -0.23294902 0.1088583 0.49347574 0.1390382 -0.720082 -0.5173029 0.03959839 -0.6107805 0.024790492 0.32161373 -0.25954744 0.41005456 0.017333094 0.43904626 1.0586324 1.5263563 -0.03474807 -0.0016800835 1.1019543 0.3864404 -0.2838283 0.98604614 -0.92722666 -0.07278387 -0.38528362 -0.49313593 0.75781095 -1.0405947 -0.4023863 0.0015463505 -1.5482979 -0.7707012 0.079450965 0.064232744 0.57110256 0.0118231345 -0.23473658 -0.1071831 -0.6580373 -0.2943635 -0.25183785 0.05670617 0.08143758 -0.13511768 0.5940248 -0.14434075 0.0679959 -0.04782034 -0.07962426 -0.14572634 -0.5263386 0.25294498 -0.28194565 0.4353653 0.06369137 -0.03789315 -0.50923234 -0.28629866 0.09197021 0.28238216 0.39030313 -0.19109666 0.32098633 -0.24815165 0.005276083 -0.21419728 0.30143493 0.058800053 0.059805658 -0.6978594 -0.21638069 -0.33250523 -0.06588825 0.80075824 0.2087512 -0.18641259 -0.013741557 0.19325349 0.20472695 0.117394045 0.23572528 -0.65077597 -0.22683263 -0.5715939 -0.094505124 0.016463144 0.9299291 -1.1707445
3_2 -0.7565361 0.9489287 0.38180855 -0.10711868 -0.78602135 -0.35688695 -0.093433805 -1.4974742 0.26032946 0.5112702 -0.10544529 0.21405703 -0.5190113 -1.7718341 -0.8787981 0.4990332 0.28587732 -0.17460383 -0.49874726 -0.33967403 -0.1597134 -0.3929932 -0.55159676 -0.21922539 0.645435 1.1597472 0.10480539 2.1288898 -0.9842439 0.42802685 -0.5383512 0.7514978 -1.8730476 0.8906308 -0.88484466 0.08915236 -0.85509866 1.4065558 -0.14720833 -0.48553696 0.20009892 0.3734347 -1.2788956 -0.036200237 1.0677209 -1.4445873 -0.38096505 0.6235279 -0.16162086 0.351021 -0.4900156 0.25323445 -0.22833042 -1.0299529 0.071394116 0.10313418 0.77514315 0.73777354 -0.9875543 -1.3368273 1.0184505 -0.074717104 -1.3095012 -1.5052073 1.2321836 -0.6361766 -1.1837983 0.65026915 -0.23266438 0.065202035 0.7898341 0.95529467 -0.27980456 -0.5128865 1.0425833 -0.11162343 0.43061784 1.458544 -0.5250179 -0.56101686 -0.44320622 -0.19309705 0.11222742 -2.060101 0.29554835 0.14056328 -0.43969455 -0.19067606 -0.32046863 0.2714501 -0.800001 -0.07029583 1.0072911 0.13627967 0.004056026 0.7538569 1.0069538 -0.020256517 -0.28358325 0.46520287
3_3 0.37376538 -1.6127542 -0.16758145 0.019370817 0.06613685 1.363003 0.44515496 0.44853765 1.5328587 1.4436121 -0.5777341 0.034689687 0.51714665 1.5706975 -0.72978514 -0.94886124 -1.1354182 0.48451585 0.8809882 0.58388084 -1.2582259 0.93992215 -0.031066429 -0.3396733 -0.88325024 0.30858657 0.5618048 -0.002806121 -0.23857932 0.12842491 -0.14497691 0.29246458 -0.8673295 -0.24374367 0.7091731 -1.7492911 -0.054215748 0.1215001 0.5589684 -0.2588213 -0.999396 0.5034243 1.5296022 0.026379935 1.0383658 -1.478943 0.3027982 0.91934127 0.22665893 0.35144845 -0.15089197 -0.24776678 -1.0190065 -0.73259187 -0.58083373 -1.1540009 -0.6233664 -0.57694554 -0.12292792 -0.39732754 0.022463985 -0.5593246 -0.16894034 -1.0819684 -1.057823 -0.52603954 -0.45798686 -0.30369565 -0.7123484 1.1208842 -1.8447007 0.32841018 0.032198608 -0.16530327 -0.97592866 -0.7248622 -1.1338028 0.5240472 -0.010939631 0.63238955 1.2284974 0.06737071 -1.2305285 -0.646576 0.122048266 -0.5948133 0.46497887 1.6099457 -0.084292255 -1.2327954 -0.22951037 -0.29496738 0.04713516 -1.3191657 -0.45928162 0.56574667 1.3662211 -0.17729735 2.0872777 0.22639382
4_7 -1.7094494 0.10502974 0.53759235 -0.21182996 1.8487898 -0.79500943 -0.4069958 1.7338021 -0.1761831 -2.2637281 1.1171476 1.3582305 3.414198 -0.7735884 -0.8270765 -0.71708715 1.7931817 0.531337 0.26343292 -2.3140645 -2.0228722 -0.8853796 -1.7863368 -2.5812225 -1.0192307 -2.483854 0.70337886 1.5404016 1.462719 -1.6062728 1.4886379 -2.3021874 -1.308324 -0.59701115 0.80764854 0.8657286 -0.7069933 1.023212 -1.1523976 -1.0073788 -0.20400651 -0.83628505 0.94473594 0.8862308 1.0190707 0.19281672 -0.8748699 -0.9882663 -0.31601503 -0.7511721 0.7011218 0.31189087 -0.6556251 -0.9911295 1.1048142 -1.5195023 -0.58423483 -0.8429379 -0.5501519 0.3158828 0.16965207 -0.32314315 -0.6954161 -0.8450356 1.6302004 1.1292579 0.52605885 -0.094419666 -0.34281358 0.5383489 1.1469567 1.4041532 0.19962521 2.5881014 -1.1286411 1.7375641 -0.96107227 -0.7188388 -1.0611129 -1.2812041 0.1763962 0.6326557 -0.5764681 0.9010765 -1.185123 2.1849897 -0.854771 -0.41887805 -2.5311277 0.16571073 -0.22113493 1.2977165 -2.052619 1.135466 -0.8497662 -1.5460513 -1.2616017 0.59478915 0.059162036 2.0238605
3_7 1.9899527 0.83948994 0.31726116 -0.66592544 -0.29027686 0.56896645 -0.7579197 0.5841009 -0.114492916 0.14360808 0.087816544 0.9705542 0.102083646 0.59051186 0.25341746 -0.16672793 0.5359692 -0.17175597 -0.059865616 -1.3411753 0.33041495 -0.27156976 -0.49094847 0.5392287 -0.5688379 0.83172095 -1.9289019 0.74874085 0.31085983 0.012142182 1.5788665 1.8572342 0.476 -0.37582344 0.13452138 -0.23669194 -0.34553257 0.67653584 -0.37824416 -2.0082853 0.3599022 0.6791242 -1.9155538 -0.4224184 1.2053336 0.5855372 0.885597 1.7604178 -0.5448636 -0.53875244 0.46017164 -1.605437 0.124244355 -0.5992584 0.50364256 0.424549 0.5502201 0.7907578 -0.14470643 0.48344743 -0.75371075 -0.09748134 -1.0262483 0.44814292 -1.2816976 -2.0331504 0.47224993 -1.1871135 1.4222077 -1.315323 0.97012675 0.8251643 0.22946075 -1.2178913 0.09374755 -0.4227795 -0.10970802 -0.4143756 -1.6483674 0.72326845 0.47348714 0.7283773 -0.36361393 0.06954404 0.9723758 0.05706563 0.32071048 2.07737 -0.8379327 0.67619777 -0.15002458 0.6472897 1.6490315 0.8826959 0.2618341 0.14095408 0.042151578 -0.59793 0.12129136 -1.2326444
9_1 1.1076705 -0.2740215 -0.9310538 -0.5565625 0.054781895 -0.7607168 -1.6763335 -0.100087374 1.014922 0.27729023 -0.3064163 0.27978563 -0.061653383 -0.07560265 -0.35929683 0.5662747 -0.19717237 0.09461972 -0.4125516 0.29678577 0.4721765 0.53545123 0.21584436 -0.03726729 -0.40751854 0.24770397 1.849875 -0.048984587 -0.0072798165 0.3501712 -0.16067831 0.23165141 0.3675823 -0.5020603 -0.10155434 -0.22748883 0.40472302 -0.20284419 -0.22641192 0.18260552 -0.14438412 -0.51671815 -0.7128951 -0.4440327 0.42273614 0.36227322 -0.1908047 -0.10092144 0.5171008 0.0017929478 0.23234248 -0.09462114 0.77988964 -0.09552755 0.22131136 0.28763303 0.42346832 -0.36986542 -1.0218397 0.05700568 0.5111621 0.649154 0.6475551 -1.0082337 0.37267485 0.2983871 0.4614642 -0.049485337 -0.16739956 0.2062971 -0.073811784 -1.1628352 0.53602815 -0.50511026 0.85193366 0.038884316 0.5084435 -0.39713243 0.29268116 0.6101927 -0.15180069 -0.073200904 -0.19708325 -0.07191285 0.44130453 -0.4706767 -0.36147124 0.51568466 0.08457669 -0.17038524 -0.00505011 0.105289385 0.72431314 -0.09937967 -1.0183126 0.20890023 -0.05897805 0.33185577 0.3851727 -0.1788541
2_3 -1.2649565 -0.5025144 1.7990178 -0.56657547 -1.5573573 0.8371256 1.0178872 -0.6394656 0.3967159 -0.6018471 0.3957105 -0.43666613 0.41760832 -0.7767587 0.3907716 0.957306 -2.9802492 -1.6374332 -0.55533165 0.022135722 0.5429728 0.2709582 1.5369194 -0.32427976 2.2042518 -0.31423652 0.078282826 -1.0726382 -0.26409993 -1.3036399 -0.70987153 -1.7725661 -1.6334549 1.04018 1.1948054 1.4153264 -1.8354958 -0.25808612 -0.024939124 1.113218 -1.2151632 -1.4712461 3.190033 1.686867 0.009500824 0.4487495 -0.44168845 0.7933086 0.56424004 1.4027092 1.2696733 0.71401715 0.17772563 1.7301921 2.3372993 -2.37856 -0.10892125 1.0465126 -1.3710803 0.586711 -0.38619366 -0.21030241 -1.9562175 0.2068735 -0.36220422 -1.1470273 -0.5891907 0.6210506 1.2574923 1.4274473 0.036797084 0.6457479 0.39683968 -0.36015663 1.2922931 -0.8007436 -2.489367 2.3818822 -0.61038 0.237854 0.7572749 -0.45076007 -0.21422361 -1.9982438 1.4553255 -1.6422335 -0.00034128237 -1.3166281 1.2844105 0.09601465 -0.40530518 -1.0007348 0.32152724 -0.8373324 -4.349456 -1.2053213 0.9138166 -1.0253417 -0.5187224 -1.3820817
2_2 0.11996548 -0.6629232 -0.12001246 1.1307288 -0.5784434 -0.03302223 -1.3496078 -1.0556835 0.96246994 -1.8957095 0.73915994 0.34144145 2.336684 0.6548575 0.25251412 -0.05854723 1.4373703 0.11713043 0.4020071 0.99175686 2.7432559 -0.9900061 -1.2771009 1.7126849 -2.1543617 1.1561266 0.26874226 2.6036856 -0.1716364 -1.0681279 2.4354563 -0.48153386 0.5123992 0.56977886 -1.7216294 1.9565682 -1.1735065 3.128146 0.32623997 0.80759776 0.612485 -2.6658664 -0.89378923 2.4392302 0.8859852 -2.1263325 -1.4727544 0.724151 -0.056818258 2.8791838 -1.9624163 -1.4750344 -0.19101475 -2.5100896 0.55692446 0.5090807 -2.6346183 -0.6653402 -0.7279187 -2.3695161 -0.754065 -1.8529088 -2.900983 0.9463837 0.17236234 1.7297195 1.6350548 -0.36190277 0.07935891 1.222383 -1.3197618 1.7892991 2.229719 0.24351978 -1.0288353 2.4530978 -1.6000788 -0.15274045 0.033181496 -1.0768908 -0.9871838 -0.16511086 -2.2804325 0.02906367 -0.51651907 2.1744397 0.41206834 0.9327652 -2.0154467 0.4318793 0.7812032 -0.562566 0.6112776 -0.1999794 -1.6425774 0.15911575 -1.1465775 -1.6512512 -0.001743662 -1.4961796
4_9 -0.4873088 -0.099478565 1.159222 0.2487174 -2.4435058 0.79105574 1.5026317 1.0476139 -2.766772 -1.9777961 0.5736856 -0.301438 -0.028173024 0.22185859 1.7010251 -1.0280876 -1.8767198 -0.49280477 -1.2415025 1.0215503 -0.07711516 -1.009141 -1.1137667 0.39804894 -0.85552853 -0.8267696 1.6764975 -0.3908517 0.86988395 -0.65696967 -0.053164218 1.7600381 0.45885512 1.0144829 1.08305 1.4034356 -0.41029 -0.2429164 0.08335471 -0.82823735 0.58441436 -0.3396028 -2.0614083 -0.9028784 -0.48800153 -0.9770815 -1.0706573 0.42243302 -1.1200086 1.2345235 -0.31719592 -0.64868754 -1.5786614 -0.046159092 -0.32650772 0.29246515 -2.7398643 0.010559894 0.095637895 -1.5056697 -0.9345805 0.070200905 0.5175321 0.13582054 -2.281561 0.8220534 -0.65745735 0.37935293 -0.6148161 -0.61330515 0.041604973 0.1452006 -0.6060758 0.052927032 -0.021579532 0.1902286 -0.1536975 -1.8958688 -0.21906696 -0.4457665 0.9892395 2.1024663 -0.46609825 1.193628 -1.0275394 1.302772 -0.31043065 -1.1267157 0.06821081 -0.88984036 -1.6852182 0.76581067 -0.82633334 1.813316 0.75774634 -0.3412073 -1.350591 0.016041618 -0.8656667 0.2673306
3_8 0.7914577 0.7758571 0.18141977 0.1983196 0.0065726493 0.30896145 0.8665013 0.9178693 -0.16154438 0.17324784 -1.3013694 0.48135543 0.47910655 -0.46669382 0.026443444 0.014049703 -1.5049983 0.4316742 0.14612961 0.43934068 0.23893143 -0.2321811 -0.98434377 -0.06214488 1.7200572 -0.68405664 -0.80093443 0.27306846 0.6001357 -0.61382776 -0.021355016 0.9018089 -0.5777611 0.27604625 -0.08408196 -1.9171985 -0.7734549 0.38671115 0.4610498 0.45222142 -0.2568074 0.03999704 -0.12417899 0.24150068 0.37650743 -0.115557455 -0.12418148 -0.1537946 2.018582 0.09306208 -0.014210772 -0.43788332 -0.2409088 -0.67253244 0.76326865 2.071962 -0.6073136 0.65124506 -0.056897208 0.36908686 -0.42017978 0.4477794 -1.7151732 -1.1453955 -0.47044313 0.49356642 -0.5165973 -0.21837676 -1.0717016 0.3478418 -0.25794524 0.6856037 1.178421 -0.7896764 -0.401884 -0.18027103 0.47396335 -0.08082249 0.08242802 0.1156828 1.1137677 -0.77174264 -1.3856245 -0.4181482 1.2201983 -1.7063026 -0.38462257 -0.05271408 1.0706171 -0.45447373 -0.66441554 -0.6079056 0.63752425 -0.34570888 -0.45570198 -1.361233 1.1897671 -0.6863065 0.857483 0.7044389
8_None -1.780063 0.2813104 -0.76938117 -0.45926443 0.24674228 0.7298653 0.8253789 0.26436347 -0.5720784 -0.20709081 -1.6840187 0.56578034 0.25143856 0.6503708 -0.10635313 0.18999518 -1.8190229 -0.6695164 0.04996493 -0.6884507 -1.9508497 0.44992623 -1.3254755 -1.3793143 -1.3751547 -0.08628207 0.47533736 0.46494204 0.5779359 -1.0130992 -0.5437926 1.9320835 0.79655737 -1.5761366 -0.4309057 -0.12269455 0.89395565 -2.1026053 -0.43770692 -1.2259437 -0.84943366 1.0207856 -0.15907946 -0.08163568 0.094235495 0.48614764 -0.003599063 0.11067646 -1.0074288 -0.46213394 -0.35328773 0.35584006 0.5763668 1.0940895 0.0797855 -1.6605946 1.1348845 -1.3331716 -0.18359329 0.11153286 -1.2620325 -0.9874765 0.6809696 -1.0278598 -1.7797465 0.8267966 -0.42358115 1.1495881 -0.2382532 -0.8649031 -0.7580773 -0.7401189 1.585352 0.01352695 0.7992606 0.2002695 0.34408867 -2.0519621 -0.4278936 -0.1301969 -0.1961973 0.9783801 1.6436555 0.35870466 -0.11606474 -0.78536534 1.1306328 0.1098366 0.28625643 -2.6083045 0.1697676 -0.6860327 0.5102435 -0.7119728 -0.65613616 -3.078396 -0.053528637 1.0229571 -0.6983944 0.4283094
9_5 0.18184657 -0.43852985 0.26532933 0.9372485 -0.13163105 -0.19681244 -1.1672112 -0.36308125 -0.09147058 -0.3271515 -0.54191875 0.20282502 0.01127853 -0.040662237 0.027778916 -0.7334276 -0.24821492 0.17687008 -0.7999046 1.1357251 0.15737326 -0.85561115 0.20679764 -0.7515332 -0.4109605 0.4707433 0.26811045 0.30870605 -0.030557172 1.3484396 -0.08788647 -0.6229118 0.46293622 -0.5364663 -1.0310614 -0.09034679 -0.2857189 -0.6433075 -0.15356202 0.12364814 0.041737244 0.54716676 -0.22838306 -1.084028 -0.23021021 0.15757187 -0.17576203 0.086269535 -0.37555936 0.0037442301 -0.19086693 0.026901508 0.33766428 0.14865327 0.66228974 -0.5181503 0.23736227 -0.21046926 -0.29750237 0.099306494 0.084599614 0.332689 0.83431584 0.18748266 0.65943336 -0.11939555 -1.0923437 -0.033495 -0.4399495 0.8462502 0.37811416 -0.6436065 0.42791247 -0.026779778 0.8603717 1.383369 0.20992477 0.119545415 0.23978056 0.9553012 0.48145917 0.19125625 -0.30529723 0.14494817 -0.91447306 -1.2315568 -0.08172432 1.1477442 -0.5540762 0.0049784426 0.37427548 -0.057903636 1.1255571 1.4838564 0.0827353 -0.03286112 0.19488475 -0.67218065 -0.24307027 -0.20500559
9_6 -1.1186264 -0.6588696 0.87922376 0.11326268 -0.06468099 0.07061286 -0.13976645 -0.46386442 -0.0060447934 -0.304689 -0.44580102 -0.67040396 0.8823808 -0.07649659 0.16653843 0.06598113 0.11355991 0.3059685 -0.35082233 0.6954805 0.123931 0.102308095 -0.11544943 0.35003266 0.86571395 0.6242469 -1.5445249 0.909891 0.031449016 0.82060647 0.19986516 0.30796203 -0.03777872 0.16406849 -0.6886054 -0.07649666 0.022211678 -0.5318558 -1.480533 0.08345935 -0.2991849 -0.23141667 -0.3104844 -0.09426754 0.026316043 0.058464836 0.0052852323 -0.06506212 0.34178054 -0.017131831 0.36062452 -0.009778867 0.8590887 0.31214458 0.012259056 -0.6800425 -0.3614721 -0.7745066 -0.118799984 -0.011180163 0.12067098 -0.17750311 0.82672626 -0.37202802 -0.14425783 -0.37183756 0.3766838 0.12043824 -0.5458497 -0.15539533 -0.28442895 -0.096852966 -0.09974096 -0.6146078 1.8010174 0.20783225 1.3991512 0.09477335 0.72059155 0.26807484 0.36523524 -0.59194446 -0.09182928 -0.03421625 0.34964028 0.038648833 -0.18245931 1.4789335 -0.33807617 0.06273149 0.56301886 -0.40248796 0.5567152 -0.6392718 0.14552593 -0.22940521 1.0410069 0.6126121 -0.19449379 -0.4295843
8_3 -0.75524217 1.3874681 -0.28433532 -0.6014045 0.35870314 0.19464217 0.053989056 -0.218705 0.03891507 0.32129577 -0.5876827 0.12607612 -0.0054753153 0.086544424 0.3562969 -0.13435484 0.022850472 -0.13028479 0.083926566 -0.07502682 0.06674091 -0.29485896 -0.12946379 -0.14969231 0.6944744 0.27668542 1.1224791 -0.35145327 -0.029652974 -0.072588444 0.091387875 -0.079785496 -1.1063315 0.1701549 -0.8834167 -0.19745341 -0.09869548 -0.922704 0.6559429 -0.4970709 0.18797581 0.039830968 0.21883084 -0.17257494 -0.2721151 0.68731755 -0.4301153 -0.09255338 -0.6295942 0.0043040025 -0.3911825 0.047487948 0.0066419137 -0.4882148 0.20441031 -0.5709877 0.31601182 -0.49063864 -0.3318197 -0.2610109 0.043229535 0.055319153 0.27333185 -0.40076166 -1.0002189 -0.10228813 -0.28019306 -0.07559436 -0.79573077 0.05579561 0.16887395 0.3555431 0.4721716 0.49300566 0.38799813 0.059831347 -0.25869235 0.21672346 0.8375158 0.0576549 0.45322078 -0.8599627 0.09543073 0.05683513 -0.02336362 -0.074805744 0.034057632 0.056569748 0.017121917 0.25330377 0.23169331 -1.5826406 0.6717848 0.16640139 0.10934037 1.0826274 0.16988684 0.42178765 0.16636235 -1.2138772
4_4 -1.3284564 -0.32099727 1.0535138 0.18724225 2.0234733 -1.8069477 -0.4635304 0.90787166 2.5057602 0.8793293 -2.2482696 3.1953158 1.3056357 0.92371804 1.0423442 0.73557144 1.6017672 1.9568772 0.27969152 -0.48769358 0.34001496 -2.499743 1.4025229 -1.170566 -0.90624094 1.1589631 2.8324828 0.2633283 1.0966461 -0.21185549 -0.18380424 -2.347722 -1.1749976 -1.9265472 1.208165 -1.0082011 -0.23774923 0.8953232 0.2224089 -0.52652055 -0.5844695 2.6521437 1.1665486 1.4602112 -0.0889302 -1.8203675 -0.8814226 0.25506544 1.0804868 -0.56680876 -3.0404701 1.9175441 -0.3218874 0.40377733 0.19330467 -1.504091 -2.1761656 0.50472265 1.076847 -0.45927453 0.45144773 -0.14546926 -0.40707567 1.194297 0.78880286 0.071904436 -0.10037943 1.6793185 2.9511187 1.1419564 -3.8320174 -0.141904 -1.3193084 -0.31617323 1.9004585 -2.5952466 -0.1647747 1.7380378 -1.37356 -2.4082716 0.79682535 -0.070572995 -0.1576597 1.2975787 -0.67192966 -1.8139881 2.036845 -0.81691325 0.38240784 1.4727305 -0.7134881 1.60161 -0.40178472 -1.4388096 0.44293794 1.8011833 -0.19173695 -0.5778055 -0.6536872 2.1121235
1_1 0.19571783 0.8083833 -0.37743413 0.07211909 0.6604361 0.38525817 -0.15508051 0.060379237 1.0136334 -0.18112664 0.1819722 0.8325451 -0.6542733 0.70958126 -0.01606913 -0.13066062 -0.63416076 0.9740316 0.017670546 -0.51219386 0.69417244 0.5526186 0.022968022 -0.8346452 -0.346214 0.3834023 -1.0267721 1.360843 -0.2646007 -0.27410245 -0.30141994 1.5909712 -0.59699064 0.38821194 0.27416146 -0.19620875 0.22762907 -0.49993196 0.35729304 -0.7729567 0.1042309 0.9904688 -2.2199311 0.06436457 -0.44464272 0.0958298 -0.12547189 -0.09545755 -0.6833568 -0.02763255 0.39250264 -0.14723723 -0.43209696 -0.18397051 0.19595538 -0.3554232 -0.07189722 0.68757796 -0.022149455 -0.5305855 -0.12589346 -0.876039 -0.22185194 -0.016790787 -0.46398947 -0.80323833 -0.25424257 0.17925756 -0.6769478 0.397894 0.3790886 0.28541332 0.31393084 -0.45427513 -0.037351992 -0.049558315 0.14003849 -0.08385597 0.29074427 0.5033721 0.07028471 1.3287175 0.56762344 1.6533539 1.1827369 -0.89468765 -0.09317302 0.31647497 0.110907145 -0.12693788 -0.03384696 -0.7579044 0.61074203 0.55235 -0.25235 -0.40140617 1.049286 0.28135937 1.6706432 0.40877062
2_10 -0.3332463 -2.1052125 -0.5629607 -0.4346639 -1.1984018 -0.14387766 -0.279847 -0.23333447 -0.15492134 2.5461385 1.0450795 -1.2548975 -0.2170025 -1.1192851 -0.05997442 0.64345443 3.1777468 1.40672 0.82102346 -2.0061505 -0.93648803 -1.4638642 1.544443 0.3669123 -1.7482228 2.2272503 -1.0012138 -0.6559784 1.6942406 0.6168848 -2.1516871 1.1247106 -0.22594762 -0.4081915 0.8012425 0.60402566 -1.8747666 3.209317 -0.829623 0.22423594 -0.008083459 0.8923731 -0.19045933 0.8136106 -1.0943072 -1.3735975 1.2013686 -1.116735 -1.0502964 -0.8674257 -1.5559589 -0.41424674 1.7385181 -2.7661886 0.1505721 -1.7266743 -2.935945 0.034278512 -0.26112598 -1.656479 -1.6614578 0.026568614 -0.9787406 0.4536185 1.7643913 0.54705584 -1.7296008 -0.3716582 1.867639 0.34797713 -0.63688695 -1.023823 -1.8297882 0.5655131 -0.050261524 -1.2271261 -0.14570203 0.9802229 0.9136348 0.029325353 -0.73201394 0.85684794 1.5650351 1.1739645 2.2771513 -0.72647935 1.1092747 -0.94006044 2.6024272 -3.7409396 -1.8043909 0.43514556 -1.3550808 -0.8391902 -0.9554284 -1.6413395 0.20816852 -0.360201 -1.3696179 -1.2840831
9_3 -0.013618901 -1.192237 -0.38614044 -0.13661285 -0.16983217 -0.061594944 -1.3654023 -0.17182513 -1.169404 -1.1919302 -0.3337302 -0.09260321 -0.043528255 0.008838679 -0.49096033 -0.023888689 -0.005229809 -0.12561226 0.04234391 0.2290608 -0.015891664 0.0053192377 0.7600186 -0.5815598 0.61764395 0.787608 0.29748133 0.009718627 -0.0017582219 0.13126183 0.022574266 -0.03046685 0.42681634 0.61915606 -0.6445244 -0.07956705 0.120284125 -0.5739801 -0.109763354 0.0042527793 -0.37997004 0.07100828 -0.76875097 0.5689317 0.55242056 0.03499906 0.42419082 -0.13282764 -0.2743864 -0.012756609 -0.6288578 -0.06534584 -0.42682925 0.20011444 1.8450544 -1.1435302 -0.05293174 -1.7519882 -0.76268536 -0.028698985 0.23692374 -0.6004262 0.1843281 -0.21212281 0.2592063 0.008655625 0.1580302 -0.2413781 -0.3336442 0.018205808 0.0773944 -0.15248847 1.6428238 -0.87148666 -0.49951762 0.272106 -0.08513219 -0.76462674 0.0366891 0.14679289 0.037049476 -0.28903303 0.043214817 0.42318758 -0.11390736 -0.5160946 -1.3486707 0.15275972 -0.07043983 0.22405148 0.43266025 -0.08083928 0.032884993 -0.3514677 0.05686143 1.779324 0.7481578 0.28619236 0.35607475 -0.74322456
3_9 0.5998431 0.82011884 -0.35147068 1.2806187 0.65051275 0.9194107 0.5722919 -0.93648756 1.3384732 0.15284052 0.51150167 0.11114148 -2.135373 0.60515296 -0.02290465 0.19118991 -0.8623547 -0.61408836 1.3487654 -0.12977447 0.2291435 0.5785278 -0.004429516 -1.953306 -0.050455738 0.20809227 0.89007825 1.3832978 -0.78104544 0.6175565 -2.1282213 -0.17986803 -0.10888474 0.53339666 -0.06919288 -0.6891626 -1.2458156 -0.3635701 0.24978961 -0.25027516 -1.348216 0.5037919 0.37656713 -1.0896229 0.014770835 0.665526 -0.21830586 -0.3002885 0.64437836 -0.3835693 -1.2961361 0.24551335 0.49155998 0.24790071 0.857486 0.35873187 -0.42049247 -0.18392614 -0.033787016 -0.6598783 -0.51288027 -2.4056294 -0.5940808 0.38202867 1.444843 -1.2901154 0.10354518 -1.3237402 0.3941058 -0.19967492 1.3183724 0.61405116 0.47024807 -0.46430954 -0.7923045 1.5841542 -1.4492859 -0.10654659 0.25683606 -0.501788 0.26844633 -0.4813154 -1.7194461 -0.49711147 1.491338 1.6656379 -0.047787193 0.6689459 -2.0779948 -0.5079897 -0.46388584 -1.0330553 -0.2825189 -0.07567597 -0.50425446 0.041012842 0.117905155 0.37837225 -0.46490958 3.205684
9_None 0.160235 -1.1258332 0.11857643 -1.0488325 -2.2638388 0.42240497 -1.3264358 0.050385572 -2.7463875 -0.38618705 -0.11042279 -0.22563161 2.2022731 0.7083259 0.26871547 -0.4049046 0.114953585 2.6665378 1.2928417 -2.0075548 -1.3422451 1.9228754 -0.5142437 3.0443978 0.5379266 -1.6772068 -1.8826089 0.31454328 -1.1431977 -1.7702584 0.024678791 -0.20840286 -0.8039723 1.6268973 -1.2361063 -1.1348208 1.4736297 0.009784587 -1.3432618 -1.494317 0.6287738 -0.2812807 -0.32765952 1.1853393 0.6419957 0.41443828 2.4764419 -1.2700825 0.11235826 1.1789672 -0.20157653 0.78318924 0.9048421 -0.45797977 -0.44432357 2.6032765 1.3220183 -0.48823038 -0.87002873 -0.51925606 -0.46703538 1.6397552 -0.4133802 -3.2328568 0.4821655 1.4930826 1.5776266 0.81310135 -0.11361136 -1.9099619 1.1346272 -1.1265938 -0.134197 -1.0994093 -1.2139157 0.14515951 -1.0525818 -0.72155404 0.62035877 -0.006784774 -0.101964995 2.4522183 1.0057305 0.2556439 -0.9714041 1.3663791 0.23082232 1.9797184 -0.112925254 -0.0668229 -2.4422214 -0.25651798 -0.015079128 0.9288476 -1.289842 -2.2391236 -1.4077125 0.7342622 1.1593808 1.5531516
4_2 -0.99677056 -0.24309002 1.9989855 -0.83203125 -0.34142143 -0.4102192 0.29105067 0.18472148 1.5741882 2.8377032 -0.0036058705 -1.6495717 -0.26631925 -2.6339645 0.33157098 0.1409454 2.0936215 -0.012079257 1.2589887 -1.3534089 1.7916746 1.3752844 2.3381407 -2.8813884 0.36489108 -0.77463937 -1.1316129 -1.7398746 0.19236916 -2.1516082 0.7543746 1.1708477 0.7635781 0.81933737 -2.4508505 -0.70980686 -0.016057728 1.7127527 -0.5793768 0.25660995 -1.4516493 1.3261609 1.3323268 -0.46077424 1.6098374 2.0258324 -0.37389266 1.3781639 1.3661051 2.0717592 -1.3326901 -0.6487609 -0.18759562 -1.9957412 0.047427338 -2.04464 0.33846766 -0.4128018 3.1180754 2.2888196 -0.060394365 0.588903 -0.48029867 -2.2191706 -0.13111901 1.7936218 1.1215459 -2.2241356 0.41414413 0.2353478 1.3082567 -0.6032675 0.60130054 0.44594318 -0.14453019 -0.25482747 1.1424648 -0.9125707 -1.6435792 -2.5520303 1.6818 -3.473431 -1.3632777 0.8818544 2.9396462 0.8943062 -1.0221431 2.77647 -0.46174642 -1.0807265 0.9782574 -1.797492 -0.9084464 -2.530846 0.7011501 1.209711 -0.49227402 -0.66328657 1.0754198 -1.011797
8_10 -0.12331692 1.4402976 -0.88263357 -0.4408405 0.05085509 0.5133766 -0.04995901 -0.24428594 1.5160733 0.25157952 -0.024504054 -0.05861502 0.011124297 -0.09767463 0.42739013 0.15699361 0.82050574 -0.023074817 0.22292024 0.20487599 0.22073525 0.014864003 0.38098705 -0.25123647 0.08752639 0.35365266 0.8230935 -1.2309215 -0.02278911 0.41144666 -0.41349503 -0.011121204 -0.12774464 -0.16984493 0.03439444 0.2945241 0.685113 -0.09967874 0.3636933 -0.06584615 -0.4915798 0.4675128 0.030220538 0.0018234936 -0.16838767 -0.07427586 -0.16254424 0.13316569 -0.97579336 -0.0040972014 -0.5340574 0.1296251 0.47711188 0.27713853 0.16107668 -0.7648176 -0.10089263 -0.9435595 0.20298217 -0.11131784 0.41293415 0.11612324 0.13474321 0.25938284 0.12216902 -0.42425966 -0.11813689 -0.11377142 -0.18040422 0.81673497 -0.13928337 -0.098293 0.21760829 -1.0898781 -0.6092796 0.045236688 0.17247345 -0.002664696 0.18688363 0.10118976 -0.9291435 -0.17416602 0.4462044 -0.010037104 0.57824427 0.080786385 -0.034615654 1.4083779 -0.102666505 0.5493852 0.6576198 -0.6847428 0.2848631 -0.07267851 0.30757633 0.40748256 -0.83249736 -0.07398876 0.8285753 -1.0486774
1_2 0.4001358 0.16645086 -0.039409705 -0.8846622 -0.12063536 0.5878631 1.0251347 -0.53679526 1.6830168 0.48681486 -0.47279596 -0.14750692 -1.5931623 0.41823894 -0.4628912 -0.42426237 -0.09984151 0.12356337 0.08520523 -0.26425105 0.080091596 -0.3755692 -0.89664924 -0.097000584 0.20616515 -0.33575523 0.48148543 0.80791885 0.021801196 -0.11618734 -0.2893733 0.81501204 0.06250638 0.32207966 -0.15617998 -0.4775671 -0.07198032 -0.33625382 0.45402536 -0.95418954 -0.66514575 -0.1510725 -0.47833496 -0.46584755 0.61487365 -0.17284787 -0.11444822 0.17803375 0.14861916 0.036053784 -0.097575 -0.15385096 -0.1761779 -0.28448802 0.16089727 0.074361525 0.25905028 0.34543166 -0.033548575 -0.044067636 0.18225978 0.08711248 -0.59847784 -0.007159314 -0.36640283 -0.21033067 -0.19834185 -0.19987279 0.48886606 0.03457801 0.26258665 0.32199192 0.6325894 0.000768781 -0.75415164 -0.103897475 0.48444092 0.037429146 -0.48926392 1.0383682 0.46517128 0.19358855 -0.196436 0.2942357 -0.5195478 0.038625155 0.042331554 0.40696678 0.02760328 -0.9965618 0.24362943 -0.1328238 1.8804747 0.21146229 0.06167292 -0.4017019 0.5922915 0.12201794 0.5603643 -0.533607
2_6 0.4181095 -2.8803864 -1.308651 -0.1626907 -0.3391114 0.24939044 1.8943174 -1.0663664 0.8643591 -0.598643 -2.2113063 1.3942068 0.22112037 -1.8699322 -1.3620651 0.19270386 -0.1320136 0.03301215 -3.027659 -2.3450587 -0.5811953 -0.65108395 0.64918005 0.24555516 0.8556718 0.8395134 -0.8087444 -1.6327808 0.34975114 0.57378364 0.21125436 -0.77722013 1.7177329 -0.59155947 0.69935703 -0.96370894 -2.3046134 -1.7896867 -1.7758657 -0.09918162 0.42210472 0.71908075 0.4581062 -1.6218688 1.320513 0.3577702 0.7043957 1.182731 -0.34552196 0.19669701 1.5224364 0.27609292 -2.1619298 -1.5742213 0.3871457 -0.9404763 1.129387 0.23886 0.87566155 -1.7887007 1.6355419 -0.52955973 0.7432501 0.6906989 -0.74755913 2.3747342 1.3698198 -0.30537674 1.7287236 0.48650616 1.365767 2.3987436 -0.55021805 0.78751767 -1.0809574 1.7007875 -0.41759777 -0.8474542 1.5023941 -1.6158528 -0.35962036 -0.0767171 1.5851102 0.6517246 -0.44744122 1.8370472 -0.6356331 1.2791148 -1.4203289 1.0395024 -2.516231 -0.48980936 1.866087 0.0069965436 0.47149706 1.1048305 0.80718386 0.46034655 -0.50446737 2.0750833
5_1 -0.43847644 0.5202044 0.47116333 -0.47095254 1.0443207 -0.6640846 -0.760368 0.643447 -0.39091215 2.2660425 0.050817255 -0.7069495 -0.22579837 1.5126872 1.7530398 -0.6631245 -1.2831031 0.2042802 0.10521547 -0.75725955 -1.9651229 -0.8342219 -0.4647831 -0.11338915 0.5295465 0.906308 -1.3931042 -1.5377326 0.611052 -0.90551513 -2.4060998 0.64179605 1.8369504 3.9059105 -0.34815666 0.20805402 -0.6316195 -0.9545115 -0.16089146 1.2052823 0.23070832 1.4176633 -1.2122993 -0.33212194 -0.91672796 -0.7603155 -0.6857401 -0.25589344 1.4630759 1.0748577 0.03095337 1.6961516 1.0244845 -1.2039255 -0.10410861 0.9484082 -0.6706639 0.3322963 0.036304213 0.031231148 -0.6053384 -3.1582556 -0.19530658 -1.1700231 0.009450277 -2.0846906 -1.2722219 0.022005951 -0.0758231 -0.012821878 -1.7553811 -1.4227829 0.42272136 -0.44403166 0.25781742 0.4992127 -0.7722978 -0.89334613 0.8757183 -0.34723228 0.8643738 -0.53854185 -0.94820356 -0.6940592 0.6553085 0.5338306 0.32354736 -0.102817565 1.1730841 0.9284998 1.0587955 1.5668825 0.87576854 -2.7114606 0.95161676 1.9117619 0.39527708 -0.082573906 0.33068186 0.477109
8_5 0.2968105 2.9302828 -0.08203621 0.014082378 0.57306814 -0.38165307 0.03164071 -0.06603836 0.15550531 0.2570527 0.7781775 0.47139275 -0.09831807 0.012139827 -0.18606047 1.2218326 1.296718 0.6110064 -0.22818184 0.13223258 0.16232091 0.0628975 0.22930305 -0.15800282 0.7468612 0.303525 0.63643396 0.46486774 -0.17585112 0.44438997 0.13010742 -0.0672504 -0.010956716 0.2986347 -1.0982822 0.95466536 -0.4052435 -0.47139362 0.37747467 0.9464243 -0.27341133 0.56252813 0.108846635 -0.004561056 -0.08726206 0.13907273 -0.7734475 0.20037745 -1.8986093 0.00083669263 0.16934156 -0.23984486 0.41651824 -0.068856545 0.1055306 -0.6294855 -1.0157036 -0.5873161 -0.4877396 -0.40937057 -0.26000097 0.16480845 -0.16912599 -0.25312003 0.87159365 0.02162628 0.0050228117 -0.22137205 -0.113346964 0.28568682 0.0153756 -0.21745273 -0.38084257 -0.31964603 0.102019206 0.38056293 -0.22631712 -0.15847392 -0.12296592 0.8477956 -0.005526041 -0.14166422 0.621039 -0.24792092 0.1435979 -0.1739117 -0.05947011 0.40633658 -0.10910177 -0.41708976 -0.3770602 0.26633838 1.0693928 -0.24472414 0.25887826 1.3191332 0.7797991 0.5585076 0.2957835 -0.7621693
3_5 2.2053096 0.6244954 0.02199377 1.8757373 1.3916699 0.9277013 0.6951458 0.6192434 1.1361877 -0.69205844 1.3494389 -0.30976328 -0.45024848 0.5287652 -0.63645375 -0.05919897 -0.056624804 0.76087534 -0.7551677 0.32819924 0.034937315 1.154145 -1.315314 -0.63016117 -1.3927069 -1.1655635 0.10122256 -0.45584953 0.3594352 0.7768889 -0.17747125 0.23130314 0.35681984 0.5803333 -1.9047141 -0.49415818 -0.5251864 -1.7870299 1.3531548 -0.74343604 -1.0807551 -1.1454614 -0.52463394 -0.27298248 1.0614101 0.45946082 0.72339517 -1.094756 -0.13995352 0.14087513 -0.9772626 -0.19472098 -0.23997167 -0.43416318 -2.167331 -0.625991 1.0893546 -0.5856207 -0.28655836 -1.5360621 0.9539669 -0.9497363 -0.20659511 -1.0077404 -0.16091703 0.93520457 1.1635306 -1.4208726 -0.23904437 -0.6554658 0.7085695 1.0710622 -1.0416359 -0.9335965 -0.45171216 0.052105322 1.4657707 -0.07227587 -0.3741675 0.6206634 0.76825714 0.8035913 -0.82036126 -0.77679133 0.046708446 -0.035576846 0.3997595 -0.19892335 0.21122779 -0.7528764 -0.5209482 -1.8707243 1.273084 -1.548965 -1.1981 -1.352281 -1.408151 0.09407315 -1.5998906 -0.96756023
